{"learner":{"attributes":{"best_iteration":"158","best_score":"0.34995014955134596","scikit_learn":"{\"_estimator_type\": \"classifier\"}"},"feature_names":["player_A_rank","player_B_rank","rank_diff","player_A_rank_points","player_B_rank_points","rank_points_diff","player_A_global_matches_played","player_B_global_matches_played","global_matches_played_diff","player_A_surface_matches_played","player_B_surface_matches_played","surface_matches_played_diff","player_A_global_elo","player_B_global_elo","global_elo_diff","player_A_surface_elo","player_B_surface_elo","surface_elo_diff","player_A_global_win_pct_last_10","player_B_global_win_pct_last_10","global_win_pct_last_10_diff","player_A_global_win_pct_last_25","player_B_global_win_pct_last_25","global_win_pct_last_25_diff","player_A_global_win_pct_last_50","player_B_global_win_pct_last_50","global_win_pct_last_50_diff","player_A_global_win_pct_last_100","player_B_global_win_pct_last_100","global_win_pct_last_100_diff","player_A_surface_win_pct_last_10","player_B_surface_win_pct_last_10","surface_win_pct_last_10_diff","player_A_h2h_wins","player_B_h2h_wins","h2h_diff","player_A_ace_pct","player_B_ace_pct","ace_pct_diff","player_A_df_pct","player_B_df_pct","df_pct_diff","player_A_1st_in_pct","player_B_1st_in_pct","1st_in_pct_diff","player_A_1st_won_pct","player_B_1st_won_pct","1st_won_pct_diff","player_A_2nd_won_pct","player_B_2nd_won_pct","2nd_won_pct_diff","player_A_bp_saved_pct","player_B_bp_saved_pct","bp_saved_pct_diff","player_A_rp_won_pct","player_B_rp_won_pct","rp_won_pct_diff","player_A_bp_won_pct","player_B_bp_won_pct","bp_won_pct_diff","player_A_age","player_B_age","age_diff","player_A_ht","player_B_ht","ht_diff","player_A_tournament_minutes","player_B_tournament_minutes","tournament_minutes_diff","best_of_5","hard_surface","clay_surface","grass_surface"],"feature_types":["float","float","float","float","float","float","int","int","int","int","int","int","float","float","float","float","float","float","float","float","float","float","float","float","float","float","float","float","float","float","float","float","float","int","int","int","float","float","float","float","float","float","float","float","float","float","float","float","float","float","float","float","float","float","float","float","float","float","float","float","float","float","float","float","float","float","float","float","float","int","int","int","int"],"gradient_booster":{"model":{"cats":{"enc":[],"feature_segments":[],"sorted_idx":[]},"gbtree_model_param":{"num_parallel_tree":"1","num_trees":"259"},"iteration_indptr":[0,1,2,3,4,5,6,7,8,9,10,11,12,13,14,15,16,17,18,19,20,21,22,23,24,25,26,27,28,29,30,31,32,33,34,35,36,37,38,39,40,41,42,43,44,45,46,47,48,49,50,51,52,53,54,55,56,57,58,59,60,61,62,63,64,65,66,67,68,69,70,71,72,73,74,75,76,77,78,79,80,81,82,83,84,85,86,87,88,89,90,91,92,93,94,95,96,97,98,99,100,101,102,103,104,105,106,107,108,109,110,111,112,113,114,115,116,117,118,119,120,121,122,123,124,125,126,127,128,129,130,131,132,133,134,135,136,137,138,139,140,141,142,143,144,145,146,147,148,149,150,151,152,153,154,155,156,157,158,159,160,161,162,163,164,165,166,167,168,169,170,171,172,173,174,175,176,177,178,179,180,181,182,183,184,185,186,187,188,189,190,191,192,193,194,195,196,197,198,199,200,201,202,203,204,205,206,207,208,209,210,211,212,213,214,215,216,217,218,219,220,221,222,223,224,225,226,227,228,229,230,231,232,233,234,235,236,237,238,239,240,241,242,243,244,245,246,247,248,249,250,251,252,253,254,255,256,257,258,259],"tree_info":[0,0,0,0,0,0,0,0,0,0,0,0,0,0,0,0,0,0,0,0,0,0,0,0,0,0,0,0,0,0,0,0,0,0,0,0,0,0,0,0,0,0,0,0,0,0,0,0,0,0,0,0,0,0,0,0,0,0,0,0,0,0,0,0,0,0,0,0,0,0,0,0,0,0,0,0,0,0,0,0,0,0,0,0,0,0,0,0,0,0,0,0,0,0,0,0,0,0,0,0,0,0,0,0,0,0,0,0,0,0,0,0,0,0,0,0,0,0,0,0,0,0,0,0,0,0,0,0,0,0,0,0,0,0,0,0,0,0,0,0,0,0,0,0,0,0,0,0,0,0,0,0,0,0,0,0,0,0,0,0,0,0,0,0,0,0,0,0,0,0,0,0,0,0,0,0,0,0,0,0,0,0,0,0,0,0,0,0,0,0,0,0,0,0,0,0,0,0,0,0,0,0,0,0,0,0,0,0,0,0,0,0,0,0,0,0,0,0,0,0,0,0,0,0,0,0,0,0,0,0,0,0,0,0,0,0,0,0,0,0,0,0,0,0,0,0,0,0,0,0,0,0,0,0,0,0,0,0,0],"trees":[{"base_weights":[-1.8048068E-3,-7.218204E-1,6.1427027E-1,-1.0856016E0,-3.565051E-1,2.5067225E-1,1.0848255E0,-1.5240376E0,-9.089683E-1,-5.494941E-1,-1.3009991E-1,6.4479396E-2,5.6275487E-1,6.925377E-1,1.2811848E0,-8.1956464E-1,-1.5712112E0,-1.122293E0,-7.475209E-1,-3.7022498E-2,-6.0802674E-1,3.2508403E-2,-3.1130427E-1,2.2469887E-1,-2.8838524E-1,6.893098E-1,1.6678391E-1,5.3043175E-1,8.995965E-1,1.1158416E0,1.553633E0,-3.5883322E-2,1.1013709E-4,-5.194009E-2,-4.2891346E-2,-3.4396585E-2,1.045168E-2,-1.0273405E-2,-2.520521E-2,-1.0431394E-2,1.8057013E-2,-1.86594E-2,2.6504174E-2,-2.1171834E-2,2.7189148E-3,-2.2499205E-3,-1.5469083E-2,1.1540671E-2,2.6729984E-5,-2.5231805E-2,-6.675542E-3,5.07578E-3,2.2597702E-2,-3.955387E-3,1.353857E-2,1.7785782E-2,-4.7093984E-3,2.8176347E-2,-1.48968E-2,3.016001E-2,4.30109E-2,4.133913E-2,5.1513515E-2],"categories":[],"categories_nodes":[],"categories_segments":[],"categories_sizes":[],"default_left":[0,0,0,0,0,0,0,0,0,0,0,0,0,0,0,0,0,0,0,0,0,0,0,0,0,0,0,0,0,0,0,0,0,0,0,0,0,0,0,0,0,0,0,0,0,0,0,0,0,0,0,0,0,0,0,0,0,0,0,0,0,0,0],"id":0,"left_children":[1,3,5,7,9,11,13,15,17,19,21,23,25,27,29,31,33,35,37,39,41,43,45,47,49,51,53,55,57,59,61,-1,-1,-1,-1,-1,-1,-1,-1,-1,-1,-1,-1,-1,-1,-1,-1,-1,-1,-1,-1,-1,-1,-1,-1,-1,-1,-1,-1,-1,-1,-1,-1],"loss_changes":[2.5045735E3,3.4560315E2,5.20319E2,9.9599E1,5.6751923E1,9.9777534E1,1.0125305E2,1.1108032E1,3.1259644E1,2.1027298E1,1.7681877E1,6.0953583E1,3.204431E1,1.4442627E1,3.8020752E1,7.909006E0,5.4207764E0,1.4652863E1,1.9735138E1,1.4700265E1,1.3655411E1,1.3665686E1,1.3662144E1,2.6541527E1,1.207155E1,1.603682E1,1.3377051E1,1.0896484E1,1.1182419E1,1.7974182E1,7.132324E0,0E0,0E0,0E0,0E0,0E0,0E0,0E0,0E0,0E0,0E0,0E0,0E0,0E0,0E0,0E0,0E0,0E0,0E0,0E0,0E0,0E0,0E0,0E0,0E0,0E0,0E0,0E0,0E0,0E0,0E0,0E0,0E0],"parents":[2147483647,0,0,1,1,2,2,3,3,4,4,5,5,6,6,7,7,8,8,9,9,10,10,11,11,12,12,13,13,14,14,15,15,16,16,17,17,18,18,19,19,20,20,21,21,22,22,23,23,24,24,25,25,26,26,27,27,28,28,29,29,30,30],"right_children":[2,4,6,8,10,12,14,16,18,20,22,24,26,28,30,32,34,36,38,40,42,44,46,48,50,52,54,56,58,60,62,-1,-1,-1,-1,-1,-1,-1,-1,-1,-1,-1,-1,-1,-1,-1,-1,-1,-1,-1,-1,-1,-1,-1,-1,-1,-1,-1,-1,-1,-1,-1,-1],"split_conditions":[-1.256049E1,-5.6E2,1.3E-1,-2.2657388E2,-5.7857145E-2,6.2241276E1,7.55E2,-9.3E0,-3.1740934E-2,-7.5E0,0E0,1.6E1,4.6E0,1.21449165E2,2.3244218E2,-3.809401E-2,-3.0962726E2,7.129167E-1,-3.9E0,7.200387E-1,4.914838E-2,-1.219294E2,-6E0,8.55E2,-1.6909091E-1,2.1E1,2.1E2,1.69E2,1.14E1,1E0,2.8173912E-1,-3.5883322E-2,1.1013709E-4,-5.194009E-2,-4.2891346E-2,-3.4396585E-2,1.045168E-2,-1.0273405E-2,-2.520521E-2,-1.0431394E-2,1.8057013E-2,-1.86594E-2,2.6504174E-2,-2.1171834E-2,2.7189148E-3,-2.2499205E-3,-1.5469083E-2,1.1540671E-2,2.6729984E-5,-2.5231805E-2,-6.675542E-3,5.07578E-3,2.2597702E-2,-3.955387E-3,1.353857E-2,1.7785782E-2,-4.7093984E-3,2.8176347E-2,-1.48968E-2,3.016001E-2,4.30109E-2,4.133913E-2,5.1513515E-2],"split_indices":[17,5,29,17,29,17,5,62,50,62,62,2,62,17,17,50,17,52,62,45,50,17,2,4,29,9,5,9,62,69,23,0,0,0,0,0,0,0,0,0,0,0,0,0,0,0,0,0,0,0,0,0,0,0,0,0,0,0,0,0,0,0,0],"split_type":[0,0,0,0,0,0,0,0,0,0,0,0,0,0,0,0,0,0,0,0,0,0,0,0,0,0,0,0,0,0,0,0,0,0,0,0,0,0,0,0,0,0,0,0,0,0,0,0,0,0,0,0,0,0,0,0,0,0,0,0,0,0,0],"sum_hessian":[5.6442256E3,2.6024888E3,3.041737E3,1.3029944E3,1.2994944E3,1.7167427E3,1.3249943E3,3.719984E2,9.3099603E2,7.00747E2,5.9874744E2,1.0759954E3,6.4074725E2,4.434981E2,8.814962E2,2.4499895E1,3.474985E2,3.984983E2,5.3249774E2,7.1999695E1,6.287473E2,3.1599866E2,2.8274878E2,7.402468E2,3.3574857E2,4.8499792E2,1.5574933E2,2.5074892E2,1.9274918E2,5.517476E2,3.297486E2,1.649993E1,7.9999657E0,1.5774933E2,1.8974919E2,3.9224832E2,6.2499733E0,9.999957E1,4.3249814E2,4.874979E1,2.32499E1,6.234973E2,5.2499776E0,2.2249905E1,2.9374875E2,1.3174944E2,1.5099936E2,4.3124814E2,3.089987E2,3.449985E1,3.0124872E2,5.349977E1,4.3149814E2,7.624967E1,7.949966E1,2.2999901E2,2.074991E1,1.8774919E2,4.9999785E0,4.1249823E2,1.392494E2,1.634993E2,1.6624928E2],"tree_param":{"num_deleted":"0","num_feature":"73","num_nodes":"63","size_leaf_vector":"1"}},{"base_weights":[2.699988E-4,-7.423162E-1,6.080379E-1,-1.1319832E0,-4.3155962E-1,2.4521041E-1,1.0970141E0,-1.5237142E0,-9.5009506E-1,-5.3051496E-1,-2.065214E-1,6.684304E-2,4.6704188E-1,9.400688E-1,1.5151271E0,-1.5512431E0,-5.7141703E-1,8.1600815E-1,-9.662817E-1,-2.5996974E-1,-6.099607E-1,-1.7163904E-1,-1.178096E0,-7.3627405E-2,2.6926818E-1,5.69825E-1,1.667935E-1,7.3513013E-1,1.0916733E0,-3.3927705E-2,1.5276232E0,-4.760224E-2,-3.110812E-2,-3.807776E-2,3.2311445E-3,-1.9621605E-2,3.643997E-2,-1.3614524E-2,-3.0275395E-2,2.1342777E-2,-1.0154876E-2,-1.7218022E-2,-3.5956174E-2,-1.9188834E-2,-3.0840083E-3,-4.1990533E-2,2.0251274E-2,9.676112E-3,-4.093476E-3,-4.001351E-2,8.600184E-3,1.2192338E-2,2.205653E-2,-1.2100519E-2,7.732501E-3,9.393512E-3,2.4000615E-2,3.397724E-2,1.3056058E-2,-2.0617507E-2,4.6121597E-2],"categories":[],"categories_nodes":[],"categories_segments":[],"categories_sizes":[],"default_left":[0,0,0,0,0,0,0,0,0,0,0,0,0,0,0,0,0,0,0,0,0,0,0,0,0,0,0,0,0,0,0,0,0,0,0,0,0,0,0,0,0,0,0,0,0,0,0,0,0,0,0,0,0,0,0,0,0,0,0,0,0],"id":1,"left_children":[1,3,5,7,9,11,13,15,17,19,21,23,25,27,29,31,33,35,37,39,41,43,45,47,49,51,53,55,57,-1,59,-1,-1,-1,-1,-1,-1,-1,-1,-1,-1,-1,-1,-1,-1,-1,-1,-1,-1,-1,-1,-1,-1,-1,-1,-1,-1,-1,-1,-1,-1],"loss_changes":[2.5278625E3,3.0477368E2,5.4618787E2,7.819971E1,3.1157532E1,6.998054E1,8.465027E1,8.362488E0,2.2687561E1,2.0789215E1,1.43870125E1,2.7941767E1,2.4237228E1,2.8910645E1,1.351062E1,4.604065E0,5.5845475E0,5.189425E0,1.6239563E1,1.724907E1,1.5271271E1,1.3359455E1,7.001358E0,1.4490843E1,1.1611942E1,1.5565475E1,1.0604814E1,1.0969116E1,1.4211487E1,0E0,8.735596E0,0E0,0E0,0E0,0E0,0E0,0E0,0E0,0E0,0E0,0E0,0E0,0E0,0E0,0E0,0E0,0E0,0E0,0E0,0E0,0E0,0E0,0E0,0E0,0E0,0E0,0E0,0E0,0E0,0E0,0E0],"parents":[2147483647,0,0,1,1,2,2,3,3,4,4,5,5,6,6,7,7,8,8,9,9,10,10,11,11,12,12,13,13,14,14,15,15,16,16,17,17,18,18,19,19,20,20,21,21,22,22,23,23,24,24,25,25,26,26,27,27,28,28,30,30],"right_children":[2,4,6,8,10,12,14,16,18,20,22,24,26,28,30,32,34,36,38,40,42,44,46,48,50,52,54,56,58,-1,60,-1,-1,-1,-1,-1,-1,-1,-1,-1,-1,-1,-1,-1,-1,-1,-1,-1,-1,-1,-1,-1,-1,-1,-1,-1,-1,-1,-1,-1,-1],"split_conditions":[-2.1299856E1,-1.4340694E2,1.2019843E2,-2.7862027E2,-2.5483513E1,5.1422115E1,2.7895898E2,5.357143E-2,3.13E2,2.42E1,1.51E2,5.7142857E-2,3.02E1,1.705266E2,9.538461E-2,1.8032027E-2,-3.435237E-2,-3.169697E-1,2.16E1,-4.02E2,1.47E2,-7.0947945E-2,2E-1,2.28E1,-8.2583725E-2,1E1,4.105263E0,3.3333334E-1,4.56E2,-3.3927705E-2,3.1239974E-1,-4.760224E-2,-3.110812E-2,-3.807776E-2,3.2311445E-3,-1.9621605E-2,3.643997E-2,-1.3614524E-2,-3.0275395E-2,2.1342777E-2,-1.0154876E-2,-1.7218022E-2,-3.5956174E-2,-1.9188834E-2,-3.0840083E-3,-4.1990533E-2,2.0251274E-2,9.676112E-3,-4.093476E-3,-4.001351E-2,8.600184E-3,1.2192338E-2,2.205653E-2,-1.2100519E-2,7.732501E-3,9.393512E-3,2.4000615E-2,3.397724E-2,1.3056058E-2,-2.0617507E-2,4.6121597E-2],"split_indices":[14,14,14,14,17,14,14,32,4,60,68,32,60,14,26,47,44,26,60,8,0,47,20,60,56,11,17,28,8,0,54,0,0,0,0,0,0,0,0,0,0,0,0,0,0,0,0,0,0,0,0,0,0,0,0,0,0,0,0,0,0],"split_type":[0,0,0,0,0,0,0,0,0,0,0,0,0,0,0,0,0,0,0,0,0,0,0,0,0,0,0,0,0,0,0,0,0,0,0,0,0,0,0,0,0,0,0,0,0,0,0,0,0,0,0,0,0,0,0,0,0,0,0,0,0],"sum_hessian":[5.5990425E3,2.5199194E3,3.0791228E3,1.116839E3,1.4030804E3,1.7684261E3,1.3106967E3,3.5179782E2,7.6504114E2,9.736034E2,4.2947708E2,9.809655E2,7.874607E2,9.553424E2,3.553543E2,3.4130252E2,1.049529E1,6.4992924E0,7.585418E2,2.2197151E2,7.516319E2,4.157279E2,1.3749183E1,5.7947925E2,4.0148627E2,5.859696E2,2.0149106E2,4.087049E2,5.466375E2,1.2496036E0,3.541047E2,3.1731564E2,2.3986885E1,4.747725E0,5.7475653E0,1.2498376E0,5.249455E0,5.9486782E1,6.9905505E2,1.5998969E1,2.0597255E2,7.101398E2,4.1492146E1,5.2246582E1,3.6348132E2,1.2499282E1,1.2499013E0,7.874792E1,5.0073132E2,3.4998434E0,3.9798642E2,2.9648712E2,2.8948248E2,2.724931E1,1.7424176E2,5.524508E1,3.534598E2,5.138941E2,3.274338E1,1.2495482E0,3.5285516E2],"tree_param":{"num_deleted":"0","num_feature":"73","num_nodes":"61","size_leaf_vector":"1"}},{"base_weights":[3.3468131E-3,-7.157297E-1,5.9344405E-1,-1.1498938E0,-4.4821703E-1,2.3130421E-1,1.0542785E0,-1.4525503E0,-9.7372186E-1,-6.025687E-1,-2.510497E-1,7.312686E-2,4.295871E-1,8.4941244E-1,1.3223472E0,-1.7039241E0,-1.3351972E0,1.0763191E0,-9.9068576E-1,-2.0993179E-1,-6.5136594E-1,-3.5043538E-1,-1.376147E-2,-1.7247593E-1,1.8454213E-1,8.3717126E-1,3.6974064E-1,5.044929E-1,9.1188276E-1,1.1257737E0,1.4736401E0,-5.1857013E-2,-3.7757424E-3,-4.0797316E-2,-5.181182E-3,-1.876794E-4,4.451438E-2,-2.4145583E-2,-3.3098675E-2,-2.9119782E-2,-2.48726E-3,-2.0444842E-2,1.7059859E-3,-1.5245659E-2,-4.226602E-3,3.310981E-3,-1.4900708E-2,-1.8022804E-2,-2.6604328E-3,3.857865E-3,1.8916834E-2,2.8044071E-2,-2.2014009E-2,7.710566E-4,1.305417E-2,-1.5558677E-2,1.7752994E-2,2.1339525E-2,3.036851E-2,-1.1363941E-2,3.439174E-2,3.3269998E-2,4.635203E-2],"categories":[],"categories_nodes":[],"categories_segments":[],"categories_sizes":[],"default_left":[0,0,0,0,0,0,0,0,0,0,0,0,0,0,0,0,0,0,0,0,0,0,0,0,0,0,0,0,0,0,0,0,0,0,0,0,0,0,0,0,0,0,0,0,0,0,0,0,0,0,0,0,0,0,0,0,0,0,0,0,0,0,0],"id":2,"left_children":[1,3,5,7,9,11,13,15,17,19,21,23,25,27,29,31,33,35,37,39,41,43,45,47,49,51,53,55,57,59,61,-1,-1,-1,-1,-1,-1,-1,-1,-1,-1,-1,-1,-1,-1,-1,-1,-1,-1,-1,-1,-1,-1,-1,-1,-1,-1,-1,-1,-1,-1,-1,-1],"loss_changes":[2.3792156E3,2.9301965E2,5.1372156E2,4.9927124E1,4.7489594E1,5.4096756E1,7.3286255E1,8.115723E0,2.233783E1,1.6672668E1,1.6246086E1,2.6333946E1,1.8365707E1,1.6148315E1,1.574292E1,4.0012207E0,6.7967224E0,2.4352102E0,1.1817139E1,9.4335785E0,1.6679993E1,1.5981953E1,1.2311128E1,1.0730338E1,1.6430935E1,1.5599121E1,1.5049629E1,1.1060518E1,1.2396301E1,8.459869E0,6.813965E0,0E0,0E0,0E0,0E0,0E0,0E0,0E0,0E0,0E0,0E0,0E0,0E0,0E0,0E0,0E0,0E0,0E0,0E0,0E0,0E0,0E0,0E0,0E0,0E0,0E0,0E0,0E0,0E0,0E0,0E0,0E0,0E0],"parents":[2147483647,0,0,1,1,2,2,3,3,4,4,5,5,6,6,7,7,8,8,9,9,10,10,11,11,12,12,13,13,14,14,15,15,16,16,17,17,18,18,19,19,20,20,21,21,22,22,23,23,24,24,25,25,26,26,27,27,28,28,29,29,30,30],"right_children":[2,4,6,8,10,12,14,16,18,20,22,24,26,28,30,32,34,36,38,40,42,44,46,48,50,52,54,56,58,60,62,-1,-1,-1,-1,-1,-1,-1,-1,-1,-1,-1,-1,-1,-1,-1,-1,-1,-1,-1,-1,-1,-1,-1,-1,-1,-1,-1,-1,-1,-1,-1,-1],"split_conditions":[-2.1299856E1,-1.6140015E2,1.1567743E2,-2.7862027E2,-7.276823E1,4.9766823E1,2.1873749E2,-4.1407227E2,2.34E2,-2.63E2,2.93E1,-1.5032586E1,9E0,2.32E1,2.3244218E2,7.8449094E-1,-7.880435E-2,1.79E2,-1.65E2,-4.8848897E-2,3.9238613E1,3E0,3.8E1,5.81E2,3.19E1,1.5747792E3,2.32E1,4.105263E0,9.653417E1,-3.7369255E1,1.6042781E-1,-5.1857013E-2,-3.7757424E-3,-4.0797316E-2,-5.181182E-3,-1.876794E-4,4.451438E-2,-2.4145583E-2,-3.3098675E-2,-2.9119782E-2,-2.48726E-3,-2.0444842E-2,1.7059859E-3,-1.5245659E-2,-4.226602E-3,3.310981E-3,-1.4900708E-2,-1.8022804E-2,-2.6604328E-3,3.857865E-3,1.8916834E-2,2.8044071E-2,-2.2014009E-2,7.710566E-4,1.305417E-2,-1.5558677E-2,1.7752994E-2,2.1339525E-2,3.036851E-2,-1.1363941E-2,3.439174E-2,3.3269998E-2,4.635203E-2],"split_indices":[14,14,14,14,14,14,14,14,4,8,61,17,10,61,17,45,23,7,8,56,17,11,2,3,61,13,61,17,17,17,23,0,0,0,0,0,0,0,0,0,0,0,0,0,0,0,0,0,0,0,0,0,0,0,0,0,0,0,0,0,0,0,0],"split_type":[0,0,0,0,0,0,0,0,0,0,0,0,0,0,0,0,0,0,0,0,0,0,0,0,0,0,0,0,0,0,0,0,0,0,0,0,0,0,0,0,0,0,0,0,0,0,0,0,0,0,0,0,0,0,0,0,0,0,0,0,0,0,0],"sum_hessian":[5.605058E3,2.526329E3,3.0787292E3,9.6189966E2,1.5644294E3,1.724813E3,1.3539163E3,3.5123935E2,6.106603E2,8.7633673E2,6.880927E2,9.6019763E2,7.646153E2,7.6978906E2,5.841272E2,1.0748455E2,2.4375482E2,4.499194E0,6.0616113E2,9.74586E1,7.788781E2,4.846326E2,2.0346013E2,2.9947958E2,6.607181E2,9.623286E1,6.6838245E2,1.1943332E2,6.503558E2,2.5771777E2,3.264094E2,1.05737976E2,1.7465763E0,2.3851442E2,5.2403994E0,1.4996825E0,2.9995117E0,2.3178564E2,3.7437546E2,1.2994481E1,8.446412E1,7.471322E2,3.174595E1,2.756736E2,2.0895895E2,1.6247147E2,4.0988678E1,4.7996254E1,2.5148334E2,5.882224E2,7.249566E1,9.098346E1,5.2493935E0,1.0698154E2,5.6140094E2,8.998674E0,1.1043464E2,2.1965276E2,4.30703E2,3.249003E0,2.5446877E2,5.617256E1,2.7023685E2],"tree_param":{"num_deleted":"0","num_feature":"73","num_nodes":"63","size_leaf_vector":"1"}},{"base_weights":[6.917949E-3,-5.25805E-1,7.067803E-1,-1.0071614E0,-2.3223853E-1,3.475008E-1,1.0427383E0,-1.4054676E0,-8.29156E-1,-4.9665064E-1,-1.9309353E-2,3.6358472E-2,4.752553E-1,8.9180535E-1,1.4051881E0,-1.5819211E0,-1.225577E0,-9.1703784E-1,-4.4198307E-1,-8.2770014E-1,-3.9254126E-1,-1.8241112E-1,1.5361062E-1,1.40993E-1,-8.0443037E-1,9.1336584E-1,4.0571597E-1,7.087587E-1,1.0382049E0,8.065135E-1,1.452298E0,-4.834699E-2,-1.6889157E-2,-3.0113177E-2,-4.2086836E-2,-3.4126792E-2,-2.4007479E-2,-1.5880784E-2,1.6883975E-2,-2.7929218E-2,-6.0195406E-3,-9.722091E-3,-2.5553279E-2,-2.525618E-2,-2.8700484E-3,-1.8190456E-3,9.245315E-3,1.7098762E-2,6.3901604E-4,-1.3644922E-2,-3.9307266E-2,2.9131966E-2,-2.078582E-2,3.041732E-3,1.4474925E-2,3.0160997E-2,1.7917795E-2,2.7812274E-2,4.130556E-2,2.896147E-2,-3.7889805E-2,3.4742307E-2,4.651274E-2],"categories":[],"categories_nodes":[],"categories_segments":[],"categories_sizes":[],"default_left":[0,0,0,0,0,0,0,0,0,0,0,0,0,0,0,0,0,0,0,0,0,0,0,0,0,0,0,0,0,0,0,0,0,0,0,0,0,0,0,0,0,0,0,0,0,0,0,0,0,0,0,0,0,0,0,0,0,0,0,0,0,0,0],"id":3,"left_children":[1,3,5,7,9,11,13,15,17,19,21,23,25,27,29,31,33,35,37,39,41,43,45,47,49,51,53,55,57,59,61,-1,-1,-1,-1,-1,-1,-1,-1,-1,-1,-1,-1,-1,-1,-1,-1,-1,-1,-1,-1,-1,-1,-1,-1,-1,-1,-1,-1,-1,-1,-1,-1],"loss_changes":[2.0877E3,4.4905322E2,2.9175366E2,8.421167E1,1.1125608E2,4.652864E1,6.7137085E1,9.821594E0,2.7995117E1,3.0056915E1,3.0931929E1,3.0194914E1,2.4917343E1,2.2989746E1,9.145691E0,4.638611E0,5.981903E0,1.6585693E1,1.4023752E1,1.3412079E1,2.0871078E1,3.2201607E1,1.764945E1,1.5644587E1,6.122284E0,1.1136444E1,1.6731499E1,1.2515121E1,1.7155151E1,1.0732313E1,7.9591064E0,0E0,0E0,0E0,0E0,0E0,0E0,0E0,0E0,0E0,0E0,0E0,0E0,0E0,0E0,0E0,0E0,0E0,0E0,0E0,0E0,0E0,0E0,0E0,0E0,0E0,0E0,0E0,0E0,0E0,0E0,0E0,0E0],"parents":[2147483647,0,0,1,1,2,2,3,3,4,4,5,5,6,6,7,7,8,8,9,9,10,10,11,11,12,12,13,13,14,14,15,15,16,16,17,17,18,18,19,19,20,20,21,21,22,22,23,23,24,24,25,25,26,26,27,27,28,28,29,29,30,30],"right_children":[2,4,6,8,10,12,14,16,18,20,22,24,26,28,30,32,34,36,38,40,42,44,46,48,50,52,54,56,58,60,62,-1,-1,-1,-1,-1,-1,-1,-1,-1,-1,-1,-1,-1,-1,-1,-1,-1,-1,-1,-1,-1,-1,-1,-1,-1,-1,-1,-1,-1,-1,-1,-1],"split_conditions":[3.2307692E-2,-1.4979757E-1,9.471246E1,-2.536E3,-4.0421062E1,0E0,2.3244218E2,-2.9846153E-1,-2.55E2,-1.2887134E2,-9.2E1,9.1E1,8E0,8.15E2,7.18E2,4.348161E-2,4.4984198E-1,-1.799204E2,3.39E1,2.3684667E-2,6.4E1,-3.809401E-2,-7.9472E-3,4E1,4.8E1,2.6297662E-2,0E0,1.81E2,1E0,4.982876E-2,2E-1,-4.834699E-2,-1.6889157E-2,-3.0113177E-2,-4.2086836E-2,-3.4126792E-2,-2.4007479E-2,-1.5880784E-2,1.6883975E-2,-2.7929218E-2,-6.0195406E-3,-9.722091E-3,-2.5553279E-2,-2.525618E-2,-2.8700484E-3,-1.8190456E-3,9.245315E-3,1.7098762E-2,6.3901604E-4,-1.3644922E-2,-3.9307266E-2,2.9131966E-2,-2.078582E-2,3.041732E-3,1.4474925E-2,3.0160997E-2,1.7917795E-2,2.7812274E-2,4.130556E-2,2.896147E-2,-3.7889805E-2,3.4742307E-2,4.651274E-2],"split_indices":[26,29,17,5,17,17,17,26,5,17,5,0,10,5,5,40,58,17,61,56,2,50,38,7,2,41,20,64,69,39,20,0,0,0,0,0,0,0,0,0,0,0,0,0,0,0,0,0,0,0,0,0,0,0,0,0,0,0,0,0,0,0,0],"split_type":[0,0,0,0,0,0,0,0,0,0,0,0,0,0,0,0,0,0,0,0,0,0,0,0,0,0,0,0,0,0,0,0,0,0,0,0,0,0,0,0,0,0,0,0,0,0,0,0,0,0,0,0,0,0,0,0,0,0,0,0,0,0,0],"sum_hessian":[5.5975654E3,3.1784407E3,2.4191248E3,1.2031779E3,1.9752628E3,1.1699711E3,1.2491536E3,3.694958E2,8.3368207E2,8.805175E2,1.0947452E3,3.409302E2,8.2904083E2,8.843494E2,3.6480423E2,1.825954E2,1.869004E2,6.783412E2,1.5534087E2,2.0899614E2,6.7152136E2,5.63338E2,5.314072E2,3.0393802E2,3.6992184E1,1.11902145E2,7.1713873E2,3.9558347E2,4.8876593E2,2.7934341E1,3.3686987E2,1.7686803E2,5.7273664E0,8.599334E1,1.0090707E2,2.3183897E2,4.4650223E2,1.4334837E2,1.199249E1,1.7902617E2,2.9969973E1,5.858737E2,8.5647675E1,6.4473495E1,4.9886453E2,2.2296378E2,3.0844345E2,6.548489E1,2.3845311E2,2.2996805E1,1.399538E1,1.0840346E2,3.4986892E0,1.4494946E2,5.721893E2,1.0588713E2,2.8969635E2,3.7081757E2,1.17948364E2,2.6438286E1,1.4960555E0,8.74534E1,2.4941647E2],"tree_param":{"num_deleted":"0","num_feature":"73","num_nodes":"63","size_leaf_vector":"1"}},{"base_weights":[-6.3386103E-3,-6.822957E-1,5.577937E-1,-1.0750189E0,-4.0698186E-1,2.2999063E-1,9.7547877E-1,-1.413269E0,-9.247415E-1,-5.589099E-1,-2.542385E-1,5.702687E-2,4.10153E-1,7.3455423E-1,1.2005137E0,1.9003764E-2,-1.426424E0,-9.581558E-1,-2.698309E-2,-5.9539735E-1,1.044481E-2,-3.867945E-1,-3.0805891E-2,-2.657106E-2,4.1611314E-1,2.643888E-1,5.3730667E-1,4.7430852E-1,8.397642E-1,1.0793141E0,1.430618E0,-4.905346E-2,-3.991704E-2,-3.2351837E-2,-2.335582E-2,1.9853316E-2,-1.4945011E-2,-8.236589E-3,-1.9647742E-2,-1.0191192E-2,2.5230128E-2,1.0836038E-3,-1.4670018E-2,1.6161447E-2,-3.1920872E-3,2.3817876E-3,-7.822077E-3,1.5306446E-2,-3.9715837E-3,8.983683E-3,-1.5834477E-2,1.8851928E-2,6.6947127E-3,1.5490502E-2,-2.229472E-2,2.71591E-2,1.3423321E-2,3.3970196E-2,1.5094197E-2,4.367319E-2,1.821129E-2],"categories":[],"categories_nodes":[],"categories_segments":[],"categories_sizes":[],"default_left":[0,0,0,0,0,0,0,0,0,0,0,0,0,0,0,0,0,0,0,0,0,0,0,0,0,0,0,0,0,0,0,0,0,0,0,0,0,0,0,0,0,0,0,0,0,0,0,0,0,0,0,0,0,0,0,0,0,0,0,0,0],"id":4,"left_children":[1,3,5,7,9,11,13,15,17,19,21,23,25,27,29,-1,31,33,35,37,39,41,43,45,47,49,51,53,55,57,59,-1,-1,-1,-1,-1,-1,-1,-1,-1,-1,-1,-1,-1,-1,-1,-1,-1,-1,-1,-1,-1,-1,-1,-1,-1,-1,-1,-1,-1,-1],"loss_changes":[2.1351047E3,2.7496057E2,4.1765222E2,5.2020874E1,3.464348E1,5.330345E1,7.186084E1,9.541809E0,2.1851196E1,1.5600784E1,2.2181065E1,2.6255203E1,1.5390671E1,1.7414215E1,1.7759094E1,0E0,4.2073975E0,1.4345886E1,9.156546E0,1.3294052E1,1.3719437E1,2.0342613E1,1.21169815E1,1.7640385E1,8.592091E0,1.1059628E1,1.2640549E1,1.0087433E1,1.1473206E1,1.3405823E1,3.9996948E0,0E0,0E0,0E0,0E0,0E0,0E0,0E0,0E0,0E0,0E0,0E0,0E0,0E0,0E0,0E0,0E0,0E0,0E0,0E0,0E0,0E0,0E0,0E0,0E0,0E0,0E0,0E0,0E0,0E0,0E0],"parents":[2147483647,0,0,1,1,2,2,3,3,4,4,5,5,6,6,7,7,8,8,9,9,10,10,11,11,12,12,13,13,14,14,16,16,17,17,18,18,19,19,20,20,21,21,22,22,23,23,24,24,25,25,26,26,27,27,28,28,29,29,30,30],"right_children":[2,4,6,8,10,12,14,16,18,20,22,24,26,28,30,-1,32,34,36,38,40,42,44,46,48,50,52,54,56,58,60,-1,-1,-1,-1,-1,-1,-1,-1,-1,-1,-1,-1,-1,-1,-1,-1,-1,-1,-1,-1,-1,-1,-1,-1,-1,-1,-1,-1,-1,-1],"split_conditions":[-1.9569977E1,-1.5046162E2,1.1567743E2,-2.463685E2,-7.660707E1,2.5E-2,2.003344E2,1.89E1,1.4E1,2E-1,3E0,6.070853E1,4.9766823E1,-3E0,3.2172028E2,1.9003764E-2,-4.1407227E2,2.82E1,3.4964988E-1,-2.06E2,-9.284729E1,6.39E2,1.5E1,2.91E1,9.65E2,6.9E1,3.03E1,1.0873849E-1,3.15E1,4.36E2,-1.1E1,-4.905346E-2,-3.991704E-2,-3.2351837E-2,-2.335582E-2,1.9853316E-2,-1.4945011E-2,-8.236589E-3,-1.9647742E-2,-1.0191192E-2,2.5230128E-2,1.0836038E-3,-1.4670018E-2,1.6161447E-2,-3.1920872E-3,2.3817876E-3,-7.822077E-3,1.5306446E-2,-3.9715837E-3,8.983683E-3,-1.5834477E-2,1.8851928E-2,6.6947127E-3,1.5490502E-2,-2.229472E-2,2.71591E-2,1.3423321E-2,3.3970196E-2,1.5094197E-2,4.367319E-2,1.821129E-2],"split_indices":[14,14,14,17,14,32,14,60,5,20,65,17,14,65,14,0,14,61,54,8,14,4,10,60,5,2,60,44,60,8,2,0,0,0,0,0,0,0,0,0,0,0,0,0,0,0,0,0,0,0,0,0,0,0,0,0,0,0,0,0,0],"split_type":[0,0,0,0,0,0,0,0,0,0,0,0,0,0,0,0,0,0,0,0,0,0,0,0,0,0,0,0,0,0,0,0,0,0,0,0,0,0,0,0,0,0,0,0,0,0,0,0,0,0,0,0,0,0,0,0,0,0,0,0,0],"sum_hessian":[5.597113E3,2.546102E3,3.051011E3,1.0481117E3,1.4979904E3,1.7103015E3,1.3407096E3,3.198274E2,7.2828424E2,7.496665E2,7.483238E2,8.73255E2,8.370465E2,6.4955457E2,6.91155E2,1.7413781E0,3.1808603E2,7.020856E2,2.61987E1,7.044741E2,4.5192413E1,4.6921884E2,2.7910495E2,7.0909784E2,1.641572E2,3.9141843E2,4.456281E2,1.8858417E2,4.6097037E2,4.5643442E2,2.3472058E2,9.5063034E1,2.23023E2,4.1757086E2,2.845147E2,1.0477929E1,1.5720771E1,1.111271E2,5.93347E2,3.220589E1,1.2986522E1,9.145157E1,3.7776727E2,3.198855E1,2.471164E2,4.8864E2,2.2045781E2,1.4017778E2,2.3979412E1,3.7542218E2,1.599623E1,3.446833E2,1.0094482E2,1.8284601E2,5.738157E0,3.938655E2,6.710488E1,4.1708463E2,3.9349804E1,2.2701897E2,7.7016177E0],"tree_param":{"num_deleted":"0","num_feature":"73","num_nodes":"61","size_leaf_vector":"1"}},{"base_weights":[-4.7482504E-3,-6.664074E-1,5.407987E-1,-1.0314265E0,-3.8384476E-1,1.9379431E-1,9.3331665E-1,-1.3906107E0,-8.819507E-1,-1.3111891E-1,-4.782913E-1,8.147787E-2,4.556796E-1,7.0103496E-1,1.1769125E0,-9.7133553E-1,-1.4524703E0,-9.14617E-1,6.853408E-2,-5.5397284E-1,-4.2353168E-2,-5.808996E-1,-2.0393707E-1,2.1614839E-1,-1.17788196E-1,5.80183E-1,8.546848E-2,5.45207E-1,8.4464854E-1,1.0744048E0,1.3987093E0,-6.2010703E-3,-3.830375E-2,-3.8070835E-2,-4.6760593E-2,-2.3318438E-2,-3.2581173E-2,2.6055813E-2,-1.1928646E-2,-1.9675435E-2,3.3669274E-2,-3.705292E-2,-1.5996922E-4,-2.4643578E-2,-1.5038693E-2,1.4824317E-2,-8.145694E-3,3.8600084E-3,1.5517384E-2,7.269359E-3,-6.17492E-3,6.83827E-4,1.852243E-2,2.2501633E-2,-1.0705343E-3,2.0952504E-2,9.418693E-3,2.3299301E-2,3.9018076E-2,3.3915434E-2,1.5745832E-2,4.285769E-2,1.8750753E-2],"categories":[],"categories_nodes":[],"categories_segments":[],"categories_sizes":[],"default_left":[0,0,0,0,0,0,0,0,0,0,0,0,0,0,0,0,0,0,0,0,0,0,0,0,0,0,0,0,0,0,0,0,0,0,0,0,0,0,0,0,0,0,0,0,0,0,0,0,0,0,0,0,0,0,0,0,0,0,0,0,0,0,0],"id":5,"left_children":[1,3,5,7,9,11,13,15,17,19,21,23,25,27,29,31,33,35,37,39,41,43,45,47,49,51,53,55,57,59,61,-1,-1,-1,-1,-1,-1,-1,-1,-1,-1,-1,-1,-1,-1,-1,-1,-1,-1,-1,-1,-1,-1,-1,-1,-1,-1,-1,-1,-1,-1,-1,-1],"loss_changes":[2.0238491E3,2.609358E2,4.183811E2,5.809851E1,3.4064636E1,4.797641E1,8.074951E1,6.9658203E0,2.4373718E1,1.46279335E1,2.9170761E1,3.0714487E1,2.2523163E1,1.6110107E1,1.4463013E1,1.0139782E1,3.4666138E0,1.6978516E1,1.0394125E1,1.2287209E1,1.4286808E1,1.4079086E1,1.3568549E1,1.7917788E1,1.4692217E1,7.587631E0,1.0044708E1,1.2462677E1,1.0881409E1,1.4348511E1,4.1618958E0,0E0,0E0,0E0,0E0,0E0,0E0,0E0,0E0,0E0,0E0,0E0,0E0,0E0,0E0,0E0,0E0,0E0,0E0,0E0,0E0,0E0,0E0,0E0,0E0,0E0,0E0,0E0,0E0,0E0,0E0,0E0,0E0],"parents":[2147483647,0,0,1,1,2,2,3,3,4,4,5,5,6,6,7,7,8,8,9,9,10,10,11,11,12,12,13,13,14,14,15,15,16,16,17,17,18,18,19,19,20,20,21,21,22,22,23,23,24,24,25,25,26,26,27,27,28,28,29,29,30,30],"right_children":[2,4,6,8,10,12,14,16,18,20,22,24,26,28,30,32,34,36,38,40,42,44,46,48,50,52,54,56,58,60,62,-1,-1,-1,-1,-1,-1,-1,-1,-1,-1,-1,-1,-1,-1,-1,-1,-1,-1,-1,-1,-1,-1,-1,-1,-1,-1,-1,-1,-1,-1,-1,-1],"split_conditions":[-1.9569977E1,-1.4340694E2,1.0683574E2,-2.463685E2,-3.2E0,6.070853E1,2.003344E2,-6.7E0,1.4E1,-1.2019862E2,-9.2E1,1.3E0,4.3E0,1.10510574E2,3.3420175E2,3.69E3,4.4249502E-1,7E-1,-1.42E2,1.3598756E-1,2E0,-3.2224927E-2,6E0,6.1058064E1,1.1E1,-6.4620174E-2,9E0,1.7E0,4.065E3,4.18E2,1.6844268E3,-6.2010703E-3,-3.830375E-2,-3.8070835E-2,-4.6760593E-2,-2.3318438E-2,-3.2581173E-2,2.6055813E-2,-1.1928646E-2,-1.9675435E-2,3.3669274E-2,-3.705292E-2,-1.5996922E-4,-2.4643578E-2,-1.5038693E-2,1.4824317E-2,-8.145694E-3,3.8600084E-3,1.5517384E-2,7.269359E-3,-6.17492E-3,6.83827E-4,1.852243E-2,2.2501633E-2,-1.0705343E-3,2.0952504E-2,9.418693E-3,2.3299301E-2,3.9018076E-2,3.3915434E-2,1.5745832E-2,4.285769E-2,1.8750753E-2],"split_indices":[14,14,14,17,62,17,14,62,5,17,5,62,62,17,14,4,58,62,8,36,9,50,10,14,10,38,10,62,3,8,16,0,0,0,0,0,0,0,0,0,0,0,0,0,0,0,0,0,0,0,0,0,0,0,0,0,0,0,0,0,0,0,0],"split_type":[0,0,0,0,0,0,0,0,0,0,0,0,0,0,0,0,0,0,0,0,0,0,0,0,0,0,0,0,0,0,0,0,0,0,0,0,0,0,0,0,0,0,0,0,0,0,0,0,0,0,0,0,0,0,0,0,0,0,0,0,0,0,0],"sum_hessian":[5.6047573E3,2.5327385E3,3.0720186E3,1.1039663E3,1.4287723E3,1.631335E3,1.4406836E3,3.2197372E2,7.819925E2,3.893402E2,1.0394321E3,1.1426083E3,4.8872668E2,7.3945325E2,7.012304E2,4.3543663E1,2.7843008E2,7.560464E2,2.5946121E1,6.6641045E1,3.226992E2,7.5568805E2,2.8374408E2,6.817647E2,4.608436E2,3.6530576E2,1.2342092E2,3.5694553E2,3.825077E2,4.83579E2,2.1765141E2,1.2908117E1,3.0635546E1,1.0684657E2,1.715835E2,4.2282892E2,3.3321747E2,9.234744E0,1.6711376E1,6.339688E1,3.2441583E0,8.740309E0,3.1395886E2,1.855878E2,5.701002E2,2.4489214E1,2.5925488E2,5.29384E2,1.5238075E2,9.0193474E1,3.7065012E2,2.297408E1,3.4233167E2,1.8229856E1,1.0519106E2,2.1348544E2,1.434601E2,3.3521414E2,4.729354E1,4.378194E2,4.575961E1,2.0874306E2,8.908347E0],"tree_param":{"num_deleted":"0","num_feature":"73","num_nodes":"63","size_leaf_vector":"1"}},{"base_weights":[-1.0026607E-2,-6.580491E-1,5.159962E-1,-1.0247743E0,-3.9335123E-1,1.9488451E-1,9.255383E-1,-1.3610687E0,-8.744885E-1,1.9521797E-3,-4.5988166E-1,2.7609244E-1,-1.1113107E-1,6.999769E-1,1.1398622E0,-9.4434667E-1,-1.4284369E0,-8.9281934E-1,5.716631E-1,8.4153974E-1,-6.883361E-2,-3.7461513E-1,-7.0129174E-1,1.599241E-1,5.450381E-1,-2.9509354E-1,1.2628886E-1,-1.2299424E-1,7.2496015E-1,1.0238247E0,1.3661165E0,-3.9573986E-2,-8.513967E-3,-4.318366E-2,-4.5286044E-3,-2.2971729E-2,-3.1596556E-2,2.7122088E-2,-2.2609225E-2,3.1098481E-2,-1.5318521E-2,-2.2994082E-2,1.507395E-4,-1.8279167E-2,-7.975923E-3,-2.2913808E-2,-4.7000763E-3,-1.8642746E-3,6.786076E-3,-1.0701291E-2,1.7048001E-2,-1.1736674E-2,7.150952E-3,1.213948E-2,-4.4790776E-3,1.3119862E-2,-2.6602782E-2,3.2328814E-2,2.0070702E-2,2.8158573E-2,3.842558E-2,4.207213E-2,1.8645516E-2],"categories":[],"categories_nodes":[],"categories_segments":[],"categories_sizes":[],"default_left":[0,0,0,0,0,0,0,0,0,0,0,0,0,0,0,0,0,0,0,0,0,0,0,0,0,0,0,0,0,0,0,0,0,0,0,0,0,0,0,0,0,0,0,0,0,0,0,0,0,0,0,0,0,0,0,0,0,0,0,0,0,0,0],"id":6,"left_children":[1,3,5,7,9,11,13,15,17,19,21,23,25,27,29,31,33,35,37,39,41,43,45,47,49,51,53,55,57,59,61,-1,-1,-1,-1,-1,-1,-1,-1,-1,-1,-1,-1,-1,-1,-1,-1,-1,-1,-1,-1,-1,-1,-1,-1,-1,-1,-1,-1,-1,-1,-1,-1],"loss_changes":[1.907532E3,2.4297815E2,4.0601837E2,5.1898926E1,3.8340744E1,4.308634E1,6.4813354E1,7.7088623E0,1.9830078E1,1.2598023E1,2.5422333E1,4.2700005E1,1.5938207E1,1.3738312E1,1.6830627E1,1.1471809E1,3.6646729E0,1.387262E1,4.9686394E0,4.8768578E0,1.0078299E1,2.3427689E1,1.0927826E1,1.41112995E1,8.847023E0,1.0627569E1,1.23069105E1,9.124099E0,1.1991943E1,8.936493E0,5.407593E0,0E0,0E0,0E0,0E0,0E0,0E0,0E0,0E0,0E0,0E0,0E0,0E0,0E0,0E0,0E0,0E0,0E0,0E0,0E0,0E0,0E0,0E0,0E0,0E0,0E0,0E0,0E0,0E0,0E0,0E0,0E0,0E0],"parents":[2147483647,0,0,1,1,2,2,3,3,4,4,5,5,6,6,7,7,8,8,9,9,10,10,11,11,12,12,13,13,14,14,15,15,16,16,17,17,18,18,19,19,20,20,21,21,22,22,23,23,24,24,25,25,26,26,27,27,28,28,29,29,30,30],"right_children":[2,4,6,8,10,12,14,16,18,20,22,24,26,28,30,32,34,36,38,40,42,44,46,48,50,52,54,56,58,60,62,-1,-1,-1,-1,-1,-1,-1,-1,-1,-1,-1,-1,-1,-1,-1,-1,-1,-1,-1,-1,-1,-1,-1,-1,-1,-1,-1,-1,-1,-1,-1,-1],"split_conditions":[-2.1299856E1,-1.5046162E2,1.1567743E2,-2.463685E2,-5.7E0,4.5E0,2.003344E2,-6.4E0,1.48E2,-7.6E1,4.3E1,6.070853E1,2.7777778E-2,5.2937275E-1,3.2172028E2,7E0,2.44E2,6E-1,1.05846144E-1,4.8156466E-2,1.6E1,-8.9402E1,4.488708E-2,-3.3588074E1,2.1428572E-1,6.5295E-2,5.9934056E-1,3.7053335E-2,-8.4E1,1E0,2E1,-3.9573986E-2,-8.513967E-3,-4.318366E-2,-4.5286044E-3,-2.2971729E-2,-3.1596556E-2,2.7122088E-2,-2.2609225E-2,3.1098481E-2,-1.5318521E-2,-2.2994082E-2,1.507395E-4,-1.8279167E-2,-7.975923E-3,-2.2913808E-2,-4.7000763E-3,-1.8642746E-3,6.786076E-3,-1.0701291E-2,1.7048001E-2,-1.1736674E-2,7.150952E-3,1.213948E-2,-4.4790776E-3,1.3119862E-2,-2.6602782E-2,3.2328814E-2,2.0070702E-2,2.8158573E-2,3.842558E-2,4.207213E-2,1.8645516E-2],"split_indices":[14,14,14,17,62,62,14,62,1,68,2,17,32,42,14,1,1,62,37,44,6,17,38,17,22,53,43,40,2,69,0,0,0,0,0,0,0,0,0,0,0,0,0,0,0,0,0,0,0,0,0,0,0,0,0,0,0,0,0,0,0,0,0],"split_type":[0,0,0,0,0,0,0,0,0,0,0,0,0,0,0,0,0,0,0,0,0,0,0,0,0,0,0,0,0,0,0,0,0,0,0,0,0,0,0,0,0,0,0,0,0,0,0,0,0,0,0,0,0,0,0,0,0,0,0,0,0,0,0],"sum_hessian":[5.5939966E3,2.5062388E3,3.0877578E3,1.0494327E3,1.456806E3,1.7315603E3,1.3561975E3,3.216409E2,7.277919E2,2.1000307E2,1.246803E3,1.3684974E3,3.630629E2,6.628543E2,6.9334326E2,4.6850933E1,2.7478995E2,7.1905994E2,8.731917E0,1.5482087E1,1.9452098E2,9.2325806E2,3.235449E2,9.568085E2,4.1168896E2,2.0442406E2,1.5863884E2,1.9414038E1,6.4344025E2,4.619508E2,2.3139244E2,2.9254997E1,1.7595936E1,2.7231445E2,2.475509E0,4.0440036E2,3.146596E2,7.2350864E0,1.4968307E0,1.3734033E1,1.7480541E0,1.7724531E1,1.7679645E2,2.9089294E2,6.323651E2,2.898758E2,3.3669098E1,2.1994452E2,7.3686395E2,9.978072E0,4.017109E2,1.7343736E2,3.098669E1,7.868996E1,7.994888E1,1.144501E1,7.9690285E0,8.558479E1,5.5785547E2,3.50433E2,1.1151779E2,2.1979724E2,1.15952015E1],"tree_param":{"num_deleted":"0","num_feature":"73","num_nodes":"63","size_leaf_vector":"1"}},{"base_weights":[-5.0152075E-3,-6.2334794E-1,5.095925E-1,-1.0823531E0,-4.217323E-1,2.0016223E-1,9.2955804E-1,-1.3890347E0,-9.755599E-1,-6.108879E-1,-2.633899E-1,7.801166E-2,4.1427448E-1,7.9613227E-1,1.2948453E0,-1.42921E0,-5.5817956E-1,-6.1720055E-1,-1.0786569E0,-2.9938526E-2,-6.689967E-1,3.0878267E-1,-3.0743435E-1,2.1661983E-1,-9.486621E-2,5.2645844E-1,6.639453E-2,8.6083215E-1,3.6176318E-1,-2.656884E-2,1.3068888E0,4.337808E-3,-4.3400645E-2,2.9144509E-2,-2.7137976E-2,7.186848E-3,-2.0668996E-2,2.9988574E-2,-3.2773394E-2,-1.9879723E-2,3.9209607E-3,-2.0763775E-2,7.126335E-3,-9.922515E-3,1.5302304E-2,-3.1035282E-2,-8.264559E-3,1.7218856E-3,1.1213744E-2,8.896575E-3,-6.03162E-3,1.4361646E-2,2.991409E-2,3.1074006E-2,-1.233458E-3,1.50028E-2,2.7747279E-2,-2.9360434E-2,1.25925895E-2,3.6229227E-2,4.5332327E-2],"categories":[],"categories_nodes":[],"categories_segments":[],"categories_sizes":[],"default_left":[0,0,0,0,0,0,0,0,0,0,0,0,0,0,0,0,0,0,0,0,0,0,0,0,0,0,0,0,0,0,0,0,0,0,0,0,0,0,0,0,0,0,0,0,0,0,0,0,0,0,0,0,0,0,0,0,0,0,0,0,0],"id":7,"left_children":[1,3,5,7,9,11,13,15,17,19,21,23,25,27,29,31,33,35,37,39,41,43,45,47,49,51,53,55,57,-1,59,-1,-1,-1,-1,-1,-1,-1,-1,-1,-1,-1,-1,-1,-1,-1,-1,-1,-1,-1,-1,-1,-1,-1,-1,-1,-1,-1,-1,-1,-1],"loss_changes":[1.7820542E3,2.3495782E2,3.9701904E2,2.4050903E1,5.2826782E1,4.602941E1,6.215503E1,5.8113403E0,2.0715698E1,2.7167877E1,2.4407784E1,2.6921707E1,2.4923767E1,2.644806E1,1.0223694E1,5.3867188E0,6.5875406E0,8.258774E0,1.3933716E1,7.6361046E0,1.5514557E1,9.1100025E0,2.0535507E1,1.557901E1,2.085244E1,1.0384949E1,1.641466E1,1.8677002E1,1.0140198E1,0E0,5.1415405E0,0E0,0E0,0E0,0E0,0E0,0E0,0E0,0E0,0E0,0E0,0E0,0E0,0E0,0E0,0E0,0E0,0E0,0E0,0E0,0E0,0E0,0E0,0E0,0E0,0E0,0E0,0E0,0E0,0E0,0E0],"parents":[2147483647,0,0,1,1,2,2,3,3,4,4,5,5,6,6,7,7,8,8,9,9,10,10,11,11,12,12,13,13,14,14,15,15,16,16,17,17,18,18,19,19,20,20,21,21,22,22,23,23,24,24,25,25,26,26,27,27,28,28,30,30],"right_children":[2,4,6,8,10,12,14,16,18,20,22,24,26,28,30,32,34,36,38,40,42,44,46,48,50,52,54,56,58,-1,60,-1,-1,-1,-1,-1,-1,-1,-1,-1,-1,-1,-1,-1,-1,-1,-1,-1,-1,-1,-1,-1,-1,-1,-1,-1,-1,-1,-1,-1,-1],"split_conditions":[-1.9569977E1,-1.889575E2,1.2019843E2,-3.4538806E2,-9.6530815E1,5.4651356E1,2.7895898E2,1.555E3,-4E0,-7.5E0,-7.9E0,8E-1,4.3E0,6.3E0,9.538461E-2,1.5730284E3,2.0353599E3,-1.13E1,2.5E-1,3.0848123E-2,3.9238613E1,1.4775997E3,-1.4904015E2,-1E1,1.2E1,1.5364743E2,6E0,5.6289406E1,1.4832222E3,-2.656884E-2,1E0,4.337808E-3,-4.3400645E-2,2.9144509E-2,-2.7137976E-2,7.186848E-3,-2.0668996E-2,2.9988574E-2,-3.2773394E-2,-1.9879723E-2,3.9209607E-3,-2.0763775E-2,7.126335E-3,-9.922515E-3,1.5302304E-2,-3.1035282E-2,-8.264559E-3,1.7218856E-3,1.1213744E-2,8.896575E-3,-6.03162E-3,1.4361646E-2,2.991409E-2,3.1074006E-2,-1.233458E-3,1.50028E-2,2.7747279E-2,-2.9360434E-2,1.25925895E-2,3.6229227E-2,4.5332327E-2],"split_indices":[14,14,14,14,14,17,14,3,62,62,62,62,62,62,26,16,13,62,31,39,17,15,17,8,10,17,10,17,15,0,69,0,0,0,0,0,0,0,0,0,0,0,0,0,0,0,0,0,0,0,0,0,0,0,0,0,0,0,0,0,0],"split_type":[0,0,0,0,0,0,0,0,0,0,0,0,0,0,0,0,0,0,0,0,0,0,0,0,0,0,0,0,0,0,0,0,0,0,0,0,0,0,0,0,0,0,0,0,0,0,0,0,0,0,0,0,0,0,0,0,0,0,0,0,0],"sum_hessian":[5.5984453E3,2.542847E3,3.0555984E3,7.7472125E2,1.7681257E3,1.7601777E3,1.2954207E3,1.9699571E2,5.777256E2,8.043694E2,9.6375635E2,1.1216456E3,6.38532E2,9.511723E2,3.442483E2,1.8722258E2,9.773124E0,1.3063437E2,4.470912E2,7.327813E1,7.3109125E2,6.8455414E1,8.9530096E2,6.2238416E2,4.992615E2,4.8244147E2,1.5609055E2,8.270066E2,1.24165695E2,1.492506E0,3.427558E2,1.9765319E0,1.8524605E2,1.4714375E0,8.301686E0,9.916027E0,1.20718346E2,2.4757266E0,4.4461545E2,1.4204435E1,5.9073696E1,7.131332E2,1.795807E1,1.623427E1,5.222114E1,3.6364395E1,8.589365E2,3.09852E2,3.1253217E2,1.0615841E2,3.9310312E2,4.3984842E2,4.259303E1,1.472072E1,1.4136983E2,1.2606963E2,7.0093695E2,4.490489E0,1.1967521E2,2.3530028E2,1.0745551E2],"tree_param":{"num_deleted":"0","num_feature":"73","num_nodes":"61","size_leaf_vector":"1"}},{"base_weights":[-5.7916674E-3,-6.2886596E-1,4.9694365E-1,-9.5397705E-1,-3.7130368E-1,1.950878E-1,8.8799953E-1,-1.2788023E0,-8.0611336E-1,-4.6859804E-1,-1.5587716E-1,5.169597E-2,3.7512E-1,7.608044E-1,1.2612805E0,-1.2887198E0,2.4271006E-2,-2.097081E-1,-8.8029665E-1,-2.2686364E-1,-5.657694E-1,-1.9621913E-1,7.116667E-1,1.2915364E-1,-2.417427E-1,7.6632285E-1,3.1460825E-1,5.7626665E-1,8.751283E-1,5.817739E-1,1.2887021E0,-3.893615E-2,9.607289E-3,-3.363642E-3,-4.1500356E-2,-4.0440813E-2,-2.5196465E-2,-5.47411E-3,-3.237827E-2,-3.0611185E-2,-1.5559685E-2,-3.8245346E-3,-2.1000125E-2,-2.131712E-2,3.0399319E-2,-3.3966077E-3,6.9451625E-3,-5.326729E-3,-3.3370834E-2,3.1604476E-2,1.1303579E-2,1.168417E-2,-2.6582666E-3,2.4320338E-2,1.2591184E-2,2.7015915E-2,-8.758606E-3,2.4628693E-2,-2.8766591E-2,2.285375E-2,3.9667003E-2],"categories":[],"categories_nodes":[],"categories_segments":[],"categories_sizes":[],"default_left":[0,0,0,0,0,0,0,0,0,0,0,0,0,0,0,0,0,0,0,0,0,0,0,0,0,0,0,0,0,0,0,0,0,0,0,0,0,0,0,0,0,0,0,0,0,0,0,0,0,0,0,0,0,0,0,0,0,0,0,0,0],"id":8,"left_children":[1,3,5,7,9,11,13,15,17,19,21,23,25,27,29,31,-1,33,35,37,39,41,43,45,47,49,51,53,55,57,59,-1,-1,-1,-1,-1,-1,-1,-1,-1,-1,-1,-1,-1,-1,-1,-1,-1,-1,-1,-1,-1,-1,-1,-1,-1,-1,-1,-1,-1,-1],"loss_changes":[1.7440696E3,2.0784174E2,3.6357324E2,5.1725525E1,2.9038406E1,4.490847E1,6.276355E1,8.121826E0,3.3330444E1,2.2334747E1,1.5315738E1,2.2076752E1,1.802079E1,2.066748E1,5.5776978E0,5.431885E0,0E0,9.592922E0,1.1597229E1,1.0241983E1,1.4065674E1,1.4285941E1,9.078913E0,1.9078781E1,1.1141066E1,1.1084984E1,2.0253311E1,1.3855682E1,1.8576294E1,6.3128743E0,4.745117E0,0E0,0E0,0E0,0E0,0E0,0E0,0E0,0E0,0E0,0E0,0E0,0E0,0E0,0E0,0E0,0E0,0E0,0E0,0E0,0E0,0E0,0E0,0E0,0E0,0E0,0E0,0E0,0E0,0E0,0E0],"parents":[2147483647,0,0,1,1,2,2,3,3,4,4,5,5,6,6,7,7,8,8,9,9,10,10,11,11,12,12,13,13,14,14,15,15,17,17,18,18,19,19,20,20,21,21,22,22,23,23,24,24,25,25,26,26,27,27,28,28,29,29,30,30],"right_children":[2,4,6,8,10,12,14,16,18,20,22,24,26,28,30,32,-1,34,36,38,40,42,44,46,48,50,52,54,56,58,60,-1,-1,-1,-1,-1,-1,-1,-1,-1,-1,-1,-1,-1,-1,-1,-1,-1,-1,-1,-1,-1,-1,-1,-1,-1,-1,-1,-1,-1,-1],"split_conditions":[-2.1299856E1,-1.4340694E2,1.1567743E2,-2.7862027E2,-2.5483513E1,4.9766823E1,2.7895898E2,2E-1,-7E0,-3.3E0,7.216287E-2,4.3E0,9E0,1.19096535E2,1.345E3,5.7E2,2.4271006E-2,3.37E2,-2.5241753E2,1.56E2,9E0,6.8E1,2.43E1,-1.9122593E1,1.22E1,-2.4E1,5.7E0,1.5E2,1.18E1,6.504933E-1,1.2868098E2,-3.893615E-2,9.607289E-3,-3.363642E-3,-4.1500356E-2,-4.0440813E-2,-2.5196465E-2,-5.47411E-3,-3.237827E-2,-3.0611185E-2,-1.5559685E-2,-3.8245346E-3,-2.1000125E-2,-2.131712E-2,3.0399319E-2,-3.3966077E-3,6.9451625E-3,-5.326729E-3,-3.3370834E-2,3.1604476E-2,1.1303579E-2,1.168417E-2,-2.6582666E-3,2.4320338E-2,1.2591184E-2,2.7015915E-2,-8.758606E-3,2.4628693E-2,-2.8766591E-2,2.285375E-2,3.9667003E-2],"split_indices":[14,14,14,14,17,14,14,20,62,62,47,62,10,17,3,5,0,66,17,0,9,2,60,17,62,2,62,6,62,43,17,0,0,0,0,0,0,0,0,0,0,0,0,0,0,0,0,0,0,0,0,0,0,0,0,0,0,0,0,0,0],"split_type":[0,0,0,0,0,0,0,0,0,0,0,0,0,0,0,0,0,0,0,0,0,0,0,0,0,0,0,0,0,0,0,0,0,0,0,0,0,0,0,0,0,0,0,0,0,0,0,0,0,0,0,0,0,0,0,0,0,0,0,0,0],"sum_hessian":[5.5658145E3,2.4853274E3,3.0804873E3,1.0974076E3,1.3879198E3,1.7393684E3,1.3411188E3,3.4089185E2,7.5651575E2,9.552978E2,4.32622E2,9.689264E2,7.704421E2,1.0025418E3,3.38577E2,3.3966116E2,1.2306839E0,8.4112274E1,6.7240344E2,2.7485986E2,6.804379E2,4.1413785E2,1.8484158E1,7.670196E2,2.0190678E2,1.01646065E2,6.68796E2,3.8581442E2,6.167274E2,1.3995073E1,3.245819E2,3.3793234E2,1.7288264E0,7.8666756E1,5.4455237E0,5.0905163E1,6.214983E2,2.6240784E2,1.2452039E1,6.1955914E1,6.18482E2,3.6552057E2,4.861728E1,2.9971359E0,1.5487021E1,2.2770267E2,5.3931696E2,1.8916483E2,1.2741956E1,5.7530872E1,4.411519E1,5.6409607E2,1.0469992E2,1.5282227E2,2.3299216E2,6.038135E2,1.2913927E1,1.2518722E1,1.4763515E0,2.0838871E1,3.0374304E2],"tree_param":{"num_deleted":"0","num_feature":"73","num_nodes":"61","size_leaf_vector":"1"}},{"base_weights":[-4.1025276E-3,-5.867646E-1,4.702459E-1,-9.6741074E-1,-3.5405397E-1,1.7106546E-1,8.601961E-1,-1.395341E0,-8.735142E-1,-5.498888E-1,-2.2689286E-1,2.539917E-1,-1.1853182E-1,6.2921464E-1,1.0799612E0,-1.4234558E0,-2.1904416E-1,-2.612313E-1,-9.439044E-1,-1.4127776E-1,-6.3485974E-1,8.783609E-2,-2.7961367E-1,7.8410186E-2,3.880259E-1,2.6983634E-1,-2.1934374E-1,6.578127E-1,-1.6220234E-1,9.6660554E-1,1.2924786E0,-4.3385193E-2,-1.3116345E-2,-2.7573122E-2,2.2406278E-2,-4.5543797E-3,-3.6172036E-2,1.9558782E-2,-2.8633693E-2,-8.6042454E-4,-2.3501186E-2,3.290535E-2,-1.9315723E-2,-2.521251E-3,2.3195874E-2,-1.2553747E-2,-3.7470083E-3,3.8227692E-4,1.5020474E-2,5.815387E-3,1.6001627E-2,-3.5678034E-3,2.7471539E-2,-3.9553465E-3,-1.6158031E-2,-6.724935E-3,2.0427288E-2,-3.62297E-2,1.2618509E-2,3.055251E-2,8.974146E-3,2.8134316E-2,4.0883906E-2],"categories":[],"categories_nodes":[],"categories_segments":[],"categories_sizes":[],"default_left":[0,0,0,0,0,0,0,0,0,0,0,0,0,0,0,0,0,0,0,0,0,0,0,0,0,0,0,0,0,0,0,0,0,0,0,0,0,0,0,0,0,0,0,0,0,0,0,0,0,0,0,0,0,0,0,0,0,0,0,0,0,0,0],"id":9,"left_children":[1,3,5,7,9,11,13,15,17,19,21,23,25,27,29,31,33,35,37,39,41,43,45,47,49,51,53,55,57,59,61,-1,-1,-1,-1,-1,-1,-1,-1,-1,-1,-1,-1,-1,-1,-1,-1,-1,-1,-1,-1,-1,-1,-1,-1,-1,-1,-1,-1,-1,-1,-1,-1],"loss_changes":[1.5442605E3,2.2176428E2,3.5917737E2,3.6983093E1,3.8664948E1,4.191422E1,6.718317E1,5.2905273E0,3.3471436E1,2.1177597E1,1.5723354E1,3.1884972E1,1.5286339E1,1.4913361E1,1.5220642E1,3.070404E0,4.1595817E0,8.296491E0,1.2431763E1,7.6942816E0,8.602875E0,1.6145405E1,1.7360615E1,1.6307922E1,2.1597221E1,2.0346886E1,8.569839E0,1.3018707E1,1.489849E1,1.5251526E1,4.5791626E0,0E0,0E0,0E0,0E0,0E0,0E0,0E0,0E0,0E0,0E0,0E0,0E0,0E0,0E0,0E0,0E0,0E0,0E0,0E0,0E0,0E0,0E0,0E0,0E0,0E0,0E0,0E0,0E0,0E0,0E0,0E0,0E0],"parents":[2147483647,0,0,1,1,2,2,3,3,4,4,5,5,6,6,7,7,8,8,9,9,10,10,11,11,12,12,13,13,14,14,15,15,16,16,17,17,18,18,19,19,20,20,21,21,22,22,23,23,24,24,25,25,26,26,27,27,28,28,29,29,30,30],"right_children":[2,4,6,8,10,12,14,16,18,20,22,24,26,28,30,32,34,36,38,40,42,44,46,48,50,52,54,56,58,60,62,-1,-1,-1,-1,-1,-1,-1,-1,-1,-1,-1,-1,-1,-1,-1,-1,-1,-1,-1,-1,-1,-1,-1,-1,-1,-1,-1,-1,-1,-1,-1,-1],"split_conditions":[-2.1299856E1,-1.6140015E2,1.1567743E2,-3.5830417E2,-9.6530815E1,4.3E0,2.003344E2,5.357143E-2,-7E0,-2.11E2,2.3E1,-2E0,1.1E1,9.8E0,3.2172028E2,-7.05E2,-3.0682752E-2,3.53E2,1.463101E3,-1.5E0,-1.5066202E-1,1.33E2,-6E0,3.3E1,4.0803696E1,6.481931E1,4.504085E-2,5.2937275E-1,5.7142857E-2,4.56E2,3.3680925E-1,-4.3385193E-2,-1.3116345E-2,-2.7573122E-2,2.2406278E-2,-4.5543797E-3,-3.6172036E-2,1.9558782E-2,-2.8633693E-2,-8.6042454E-4,-2.3501186E-2,3.290535E-2,-1.9315723E-2,-2.521251E-3,2.3195874E-2,-1.2553747E-2,-3.7470083E-3,3.8227692E-4,1.5020474E-2,5.815387E-3,1.6001627E-2,-3.5678034E-3,2.7471539E-2,-3.9553465E-3,-1.6158031E-2,-6.724935E-3,2.0427288E-2,-3.62297E-2,1.2618509E-2,3.055251E-2,8.974146E-3,2.8134316E-2,4.0883906E-2],"split_indices":[14,14,14,14,14,62,14,32,62,8,60,11,10,62,14,5,44,66,16,62,44,10,11,61,14,14,59,42,32,8,55,0,0,0,0,0,0,0,0,0,0,0,0,0,0,0,0,0,0,0,0,0,0,0,0,0,0,0,0,0,0,0,0],"split_type":[0,0,0,0,0,0,0,0,0,0,0,0,0,0,0,0,0,0,0,0,0,0,0,0,0,0,0,0,0,0,0,0,0,0,0,0,0,0,0,0,0,0,0,0,0,0,0,0,0,0,0,0,0,0,0,0,0,0,0,0,0,0,0],"sum_hessian":[5.5853584E3,2.5064023E3,3.078956E3,9.4974365E2,1.5566586E3,1.7430665E3,1.3358894E3,1.6840103E2,7.8134265E2,6.115362E2,9.451224E2,1.3551439E3,3.8792267E2,6.53207E2,6.8268243E2,1.642648E2,4.136224E0,8.104975E1,7.002929E2,1.0573539E2,5.0580084E2,1.3550833E2,8.09614E2,5.8733484E2,7.67809E2,7.9598915E1,3.0832376E2,6.305893E2,2.2617704E1,4.4882825E2,2.3385417E2,1.6011046E2,4.1543417E0,2.4262462E0,1.7099777E0,7.3675354E1,7.3743963E0,4.2007403E0,6.9609216E2,9.0848915E1,1.4886476E1,1.9895426E0,5.0381128E2,1.09040115E2,2.6468225E1,4.2579123E2,3.8382278E2,5.0918204E2,7.815279E1,3.2970718E2,4.3810184E2,5.019929E1,2.9399626E1,2.431081E2,6.521566E1,1.5870062E1,6.1471924E2,7.71197E0,1.4905735E1,4.1601007E2,3.281818E1,4.106571E1,1.9278847E2],"tree_param":{"num_deleted":"0","num_feature":"73","num_nodes":"63","size_leaf_vector":"1"}},{"base_weights":[-1.9349536E-3,-5.968643E-1,4.809315E-1,-9.0989625E-1,-3.5689008E-1,2.6972175E-1,1.0000868E0,-1.1720811E0,-7.3607665E-1,-4.899677E-1,-2.2632441E-1,9.6934356E-2,5.011149E-1,8.6202073E-1,1.2126724E0,-1.1830182E0,2.3488829E-2,-2.127506E-1,-8.009081E-1,-9.9430126E-1,-4.51211E-1,1.824472E-1,-2.8749606E-1,1.9690624E-1,-1.3197263E-1,5.854878E-1,2.4798237E-1,8.979051E-1,1.5039141E-1,1.0526611E0,1.3795371E0,-3.7344933E-2,-2.5446638E-2,-9.486331E-3,2.4386251E-2,-1.6315622E-2,-2.7098596E-2,-3.364196E-2,1.2910851E-2,-1.2710319E-2,-3.379467E-2,8.000537E-3,-2.3528483E-2,-1.3939779E-2,-3.8680122E-3,-2.0384244E-3,8.344713E-3,-8.412413E-3,4.2151106E-3,1.435287E-2,2.2994697E-2,2.8168797E-3,1.4978398E-2,2.391524E-2,3.305917E-2,-2.4446782E-3,3.275757E-2,3.43586E-2,2.0728687E-2,6.542896E-3,4.239174E-2],"categories":[],"categories_nodes":[],"categories_segments":[],"categories_sizes":[],"default_left":[0,0,0,0,0,0,0,0,0,0,0,0,0,0,0,0,0,0,0,0,0,0,0,0,0,0,0,0,0,0,0,0,0,0,0,0,0,0,0,0,0,0,0,0,0,0,0,0,0,0,0,0,0,0,0,0,0,0,0,0,0],"id":10,"left_children":[1,3,5,7,9,11,13,15,17,19,21,23,25,27,29,31,-1,33,35,37,39,41,43,45,47,49,51,53,55,57,59,-1,-1,-1,-1,-1,-1,-1,-1,-1,-1,-1,-1,-1,-1,-1,-1,-1,-1,-1,-1,-1,-1,-1,-1,-1,-1,-1,-1,-1,-1],"loss_changes":[1.5938502E3,1.8639868E2,3.3554175E2,4.8265015E1,2.4365387E1,8.704326E1,2.4938293E1,1.0079529E1,2.1914307E1,1.3170639E1,1.7878887E1,2.8592573E1,1.973819E1,1.3658722E1,7.7890625E0,7.762024E0,0E0,8.015121E0,1.4741364E1,9.335697E0,1.15872345E1,7.8159547E0,1.7370773E1,1.8724815E1,1.5411423E1,1.3149506E1,9.032145E0,9.687836E0,6.012419E0,5.26947E0,6.162628E0,0E0,0E0,0E0,0E0,0E0,0E0,0E0,0E0,0E0,0E0,0E0,0E0,0E0,0E0,0E0,0E0,0E0,0E0,0E0,0E0,0E0,0E0,0E0,0E0,0E0,0E0,0E0,0E0,0E0,0E0],"parents":[2147483647,0,0,1,1,2,2,3,3,4,4,5,5,6,6,7,7,8,8,9,9,10,10,11,11,12,12,13,13,14,14,15,15,17,17,18,18,19,19,20,20,21,21,22,22,23,23,24,24,25,25,26,26,27,27,28,28,29,29,30,30],"right_children":[2,4,6,8,10,12,14,16,18,20,22,24,26,28,30,32,-1,34,36,38,40,42,44,46,48,50,52,54,56,58,60,-1,-1,-1,-1,-1,-1,-1,-1,-1,-1,-1,-1,-1,-1,-1,-1,-1,-1,-1,-1,-1,-1,-1,-1,-1,-1,-1,-1,-1,-1],"split_conditions":[-2.1299856E1,-1.4559811E2,1.705266E2,-2.5437268E2,-7.660707E1,5.785485E1,2.3244218E2,8.15E2,-7E0,6E0,-6E0,2.91E1,4.3E0,4.56E2,3.1826088E-1,8E0,2.3488829E-2,-1.5046162E2,5.625E-1,5.2462105E-2,3.47E1,8.5E1,-6E0,-2.911734E1,5.3196823E1,1.1686692E2,1.1567743E2,6.637755E-2,9.153191E-2,5.3E0,3.8916415E-1,-3.7344933E-2,-2.5446638E-2,-9.486331E-3,2.4386251E-2,-1.6315622E-2,-2.7098596E-2,-3.364196E-2,1.2910851E-2,-1.2710319E-2,-3.379467E-2,8.000537E-3,-2.3528483E-2,-1.3939779E-2,-3.8680122E-3,-2.0384244E-3,8.344713E-3,-8.412413E-3,4.2151106E-3,1.435287E-2,2.2994697E-2,2.8168797E-3,1.4978398E-2,2.391524E-2,3.305917E-2,-2.4446782E-3,3.275757E-2,3.43586E-2,2.0728687E-2,6.542896E-3,4.239174E-2],"split_indices":[14,14,14,14,14,17,17,5,62,9,62,60,62,8,23,65,0,14,22,40,60,68,11,17,14,17,14,53,47,62,57,0,0,0,0,0,0,0,0,0,0,0,0,0,0,0,0,0,0,0,0,0,0,0,0,0,0,0,0,0,0],"split_type":[0,0,0,0,0,0,0,0,0,0,0,0,0,0,0,0,0,0,0,0,0,0,0,0,0,0,0,0,0,0,0,0,0,0,0,0,0,0,0,0,0,0,0,0,0,0,0,0,0,0,0,0,0,0,0,0,0,0,0,0,0],"sum_hessian":[5.5462393E3,2.4846812E3,3.061558E3,1.0770033E3,1.4076777E3,2.1772854E3,8.842728E2,4.2707367E2,6.499296E2,6.9576953E2,7.1190826E2,1.247307E3,9.299783E2,5.3916254E2,3.4511026E2,4.2509048E2,1.983207E0,7.2112434E1,5.778172E2,4.7892952E1,6.478766E2,9.2409706E1,6.1949854E2,8.682507E2,3.790564E2,6.965086E2,2.3346965E2,5.130309E2,2.613166E1,1.799039E2,1.6520636E2,3.5654422E2,6.854624E1,6.6132935E1,5.9794974E0,1.663797E2,4.1143747E2,4.41657E1,3.727254E0,6.240587E2,2.3817896E1,8.566896E1,6.740746E0,2.9167575E2,3.2782278E2,2.0386734E2,6.6438336E2,2.4535916E2,1.3369724E2,4.3993817E2,2.5657047E2,1.455794E2,8.789025E1,3.467679E2,1.66263E2,2.1700645E1,4.431015E0,1.4150166E2,3.8402245E1,4.844917E0,1.6036145E2],"tree_param":{"num_deleted":"0","num_feature":"73","num_nodes":"61","size_leaf_vector":"1"}},{"base_weights":[-1.5051335E-2,-4.4182244E-1,5.6223786E-1,-7.412875E-1,-1.13204174E-1,2.7580383E-1,8.551036E-1,-9.8848826E-1,-5.1869404E-1,-3.371262E-1,1.5856307E-2,9.485242E-2,4.2448065E-1,5.804938E-1,1.0131953E0,-1.2135379E0,-8.4279084E-1,-7.566735E-1,-3.8784862E-1,-4.025769E-1,-2.9691395E-3,-2.0469804E-1,1.8045439E-1,6.2726566E-4,5.611913E-1,1.5050116E-1,5.2940434E-1,7.775968E-1,4.536417E-1,8.624157E-1,1.2029961E0,-2.0252261E-2,-3.7852235E-2,-1.9320633E-2,-3.0154062E-2,-3.4857544E-3,-2.407171E-2,-2.3838602E-2,-1.0356682E-2,-1.2681727E-2,1.735319E-2,-9.346135E-3,7.909122E-3,-1.4098101E-2,-9.7505614E-4,9.5830655E-5,1.0022716E-2,-4.1526943E-3,8.546069E-3,4.106926E-2,1.064678E-2,2.227205E-2,1.5249768E-3,2.9221592E-2,1.4022629E-2,7.0326123E-4,2.5976244E-2,1.7333351E-2,2.2958696E-3,8.113886E-3,2.7456217E-2,8.914521E-3,3.694867E-2],"categories":[],"categories_nodes":[],"categories_segments":[],"categories_sizes":[],"default_left":[0,0,0,0,0,0,0,0,0,0,0,0,0,0,0,0,0,0,0,0,0,0,0,0,0,0,0,0,0,0,0,0,0,0,0,0,0,0,0,0,0,0,0,0,0,0,0,0,0,0,0,0,0,0,0,0,0,0,0,0,0,0,0],"id":11,"left_children":[1,3,5,7,9,11,13,15,17,19,21,23,25,27,29,31,33,35,37,39,41,43,45,47,49,51,53,55,57,59,61,-1,-1,-1,-1,-1,-1,-1,-1,-1,-1,-1,-1,-1,-1,-1,-1,-1,-1,-1,-1,-1,-1,-1,-1,-1,-1,-1,-1,-1,-1,-1,-1],"loss_changes":[1.3553428E3,3.111806E2,1.9591553E2,9.0537415E1,4.3621803E1,3.1802483E1,4.958429E1,2.4648132E1,2.6883896E1,1.206863E1,3.482878E1,2.351432E1,1.8590233E1,1.0263092E1,1.9914001E1,7.0749817E0,1.4793884E1,8.942276E0,9.525795E0,9.365456E0,7.6010036E0,1.8712494E1,1.4959379E1,1.7674717E1,1.4504044E1,1.0654383E1,1.24767E1,1.0954971E1,1.2161385E1,1.261264E1,7.97287E0,0E0,0E0,0E0,0E0,0E0,0E0,0E0,0E0,0E0,0E0,0E0,0E0,0E0,0E0,0E0,0E0,0E0,0E0,0E0,0E0,0E0,0E0,0E0,0E0,0E0,0E0,0E0,0E0,0E0,0E0,0E0,0E0],"parents":[2147483647,0,0,1,1,2,2,3,3,4,4,5,5,6,6,7,7,8,8,9,9,10,10,11,11,12,12,13,13,14,14,15,15,16,16,17,17,18,18,19,19,20,20,21,21,22,22,23,23,24,24,25,25,26,26,27,27,28,28,29,29,30,30],"right_children":[2,4,6,8,10,12,14,16,18,20,22,24,26,28,30,32,34,36,38,40,42,44,46,48,50,52,54,56,58,60,62,-1,-1,-1,-1,-1,-1,-1,-1,-1,-1,-1,-1,-1,-1,-1,-1,-1,-1,-1,-1,-1,-1,-1,-1,-1,-1,-1,-1,-1,-1,-1,-1],"split_conditions":[2.3030943E1,-3.52E2,1.10510574E2,-1.3611626E2,-5.8270725E1,5.894737E-2,8.8E2,-2.463685E2,-1.4979757E-1,3.25E1,3.5E1,5.263675E-2,3.5599354E-1,4E-1,2.3244218E2,2.19E1,2.66E1,2.12E1,4.8212394E-1,1.25E-1,6.7E1,2.57E1,1.1239535E-3,6.7E1,3.9E1,3.4993106E-1,8E0,5.3E1,3.18E1,0E0,5.625E-1,-2.0252261E-2,-3.7852235E-2,-1.9320633E-2,-3.0154062E-2,-3.4857544E-3,-2.407171E-2,-2.3838602E-2,-1.0356682E-2,-1.2681727E-2,1.735319E-2,-9.346135E-3,7.909122E-3,-1.4098101E-2,-9.7505614E-4,9.5830655E-5,1.0022716E-2,-4.1526943E-3,8.546069E-3,4.106926E-2,1.064678E-2,2.227205E-2,1.5249768E-3,2.9221592E-2,1.4022629E-2,7.0326123E-4,2.5976244E-2,1.7333351E-2,2.2958696E-3,8.113886E-3,2.7456217E-2,8.914521E-3,3.694867E-2],"split_indices":[17,5,17,17,17,23,5,17,29,61,5,47,54,19,17,60,60,60,48,29,1,61,47,1,7,58,10,6,60,20,21,0,0,0,0,0,0,0,0,0,0,0,0,0,0,0,0,0,0,0,0,0,0,0,0,0,0,0,0,0,0,0,0],"split_type":[0,0,0,0,0,0,0,0,0,0,0,0,0,0,0,0,0,0,0,0,0,0,0,0,0,0,0,0,0,0,0,0,0,0,0,0,0,0,0,0,0,0,0,0,0,0,0,0,0,0,0,0,0,0,0,0,0,0,0,0,0,0,0],"sum_hessian":[5.4992334E3,3.161945E3,2.3372883E3,1.653698E3,1.5082471E3,1.1826008E3,1.1546875E3,7.819094E2,8.7178864E2,5.508688E2,9.5737836E2,5.3414374E2,6.4845703E2,4.2358307E2,7.311045E2,3.043971E2,4.7751233E2,3.075816E2,5.6420703E2,4.6047217E2,9.039658E1,4.0903946E2,5.4833887E2,4.451926E2,8.895113E1,1.8024113E2,4.682159E2,1.6385497E2,2.597281E2,4.1052402E2,3.2058044E2,2.624358E1,2.781535E2,2.1690614E2,2.606062E2,2.0728067E1,2.8685352E2,5.1842365E1,5.123647E2,4.517633E2,8.708855E0,4.1822712E1,4.857387E1,1.6033768E2,2.4870178E2,2.5506943E2,2.9326947E2,2.9929242E2,1.4590018E2,1.6949131E1,7.2002E1,2.5046879E1,1.5519426E2,5.548314E1,4.1273276E2,1.730289E1,1.4655208E2,1.950049E2,6.472318E1,3.411503E1,3.76409E2,1.0169136E1,3.1041132E2],"tree_param":{"num_deleted":"0","num_feature":"73","num_nodes":"63","size_leaf_vector":"1"}},{"base_weights":[3.0709393E-3,-5.3913283E-1,4.43324E-1,-8.734926E-1,-3.0694315E-1,2.4281034E-1,9.258061E-1,-1.1864402E0,-7.2071254E-1,-4.396044E-1,-1.6981491E-1,5.893785E-2,4.0404946E-1,7.4507374E-1,1.1060859E0,-1.4179099E0,-1.0758953E0,-5.740816E-1,-9.209238E-1,-8.2886446E-1,-3.8484907E-1,-3.2438332E-1,9.6129915E-3,1.3938898E-1,-2.5485256E-1,4.8423493E-1,1.7283054E-1,8.226553E-1,4.171782E-1,9.339E-1,1.2251694E0,3.3144934E-5,-4.3030515E-2,1.8710624E-2,-3.268217E-2,-2.2761967E-2,-1.2660445E-2,1.1256943E-2,-2.8473526E-2,2.3822745E-2,-2.62095E-2,6.364478E-3,-1.2669401E-2,-1.0608471E-2,2.6603341E-2,2.186061E-2,-1.3215045E-3,-1.4566141E-3,7.2548934E-3,-1.0169259E-3,-1.4458239E-2,-1.639634E-2,1.5055269E-2,2.6283003E-2,2.9362424E-3,-4.8233704E-3,2.5478002E-2,-2.477474E-3,1.9220002E-2,2.912229E-2,-4.946868E-4,3.7205435E-2,-8.435649E-3],"categories":[],"categories_nodes":[],"categories_segments":[],"categories_sizes":[],"default_left":[0,0,0,0,0,0,0,0,0,0,0,0,0,0,0,0,0,0,0,0,0,0,0,0,0,0,0,0,0,0,0,0,0,0,0,0,0,0,0,0,0,0,0,0,0,0,0,0,0,0,0,0,0,0,0,0,0,0,0,0,0,0,0],"id":12,"left_children":[1,3,5,7,9,11,13,15,17,19,21,23,25,27,29,31,33,35,37,39,41,43,45,47,49,51,53,55,57,59,61,-1,-1,-1,-1,-1,-1,-1,-1,-1,-1,-1,-1,-1,-1,-1,-1,-1,-1,-1,-1,-1,-1,-1,-1,-1,-1,-1,-1,-1,-1,-1,-1],"loss_changes":[1.3300164E3,1.9356958E2,2.9726068E2,4.8043335E1,2.6759186E1,6.4417114E1,2.8578064E1,7.0195312E0,1.9720947E1,1.5647705E1,2.0164305E1,2.57015E1,2.1384094E1,1.1198181E1,8.076599E0,2.44635E0,5.9643555E0,1.0934433E1,1.095195E1,7.3453865E0,1.4819984E1,1.414135E1,1.3051353E1,1.5603984E1,1.0411512E1,1.5867844E1,1.5713084E1,9.711288E0,9.975076E0,6.601059E0,6.2877502E0,0E0,0E0,0E0,0E0,0E0,0E0,0E0,0E0,0E0,0E0,0E0,0E0,0E0,0E0,0E0,0E0,0E0,0E0,0E0,0E0,0E0,0E0,0E0,0E0,0E0,0E0,0E0,0E0,0E0,0E0,0E0,0E0],"parents":[2147483647,0,0,1,1,2,2,3,3,4,4,5,5,6,6,7,7,8,8,9,9,10,10,11,11,12,12,13,13,14,14,15,15,16,16,17,17,18,18,19,19,20,20,21,21,22,22,23,23,24,24,25,25,26,26,27,27,28,28,29,29,30,30],"right_children":[2,4,6,8,10,12,14,16,18,20,22,24,26,28,30,32,34,36,38,40,42,44,46,48,50,52,54,56,58,60,62,-1,-1,-1,-1,-1,-1,-1,-1,-1,-1,-1,-1,-1,-1,-1,-1,-1,-1,-1,-1,-1,-1,-1,-1,-1,-1,-1,-1,-1,-1,-1,-1],"split_conditions":[-2.1299856E1,-1.5046162E2,1.6754732E2,-2.7862027E2,-7.660707E1,5.3196823E1,7.2E-1,-4.1407227E2,7E-1,9E0,6.819518E-2,4.4E0,3.02E1,5.3E0,2.5E-1,1.87E1,-1.43E1,3.0076629E-2,1.4740541E3,4.6786252E-1,2.15E1,3.7777779E-1,-8.7E0,-1.3888889E-2,3.637932E-1,2E0,-8E1,1.944024E-2,5.9310794E-1,5.3629424E-2,-8E0,3.3144934E-5,-4.3030515E-2,1.8710624E-2,-3.268217E-2,-2.2761967E-2,-1.2660445E-2,1.1256943E-2,-2.8473526E-2,2.3822745E-2,-2.62095E-2,6.364478E-3,-1.2669401E-2,-1.0608471E-2,2.6603341E-2,2.186061E-2,-1.3215045E-3,-1.4566141E-3,7.2548934E-3,-1.0169259E-3,-1.4458239E-2,-1.639634E-2,1.5055269E-2,2.6283003E-2,2.9362424E-3,-4.8233704E-3,2.5478002E-2,-2.477474E-3,1.9220002E-2,2.912229E-2,-4.946868E-4,3.7205435E-2,-8.435649E-3],"split_indices":[14,14,14,14,14,14,21,14,62,9,36,62,60,62,26,60,62,40,16,49,60,32,62,32,54,9,2,40,51,40,2,0,0,0,0,0,0,0,0,0,0,0,0,0,0,0,0,0,0,0,0,0,0,0,0,0,0,0,0,0,0,0,0],"split_type":[0,0,0,0,0,0,0,0,0,0,0,0,0,0,0,0,0,0,0,0,0,0,0,0,0,0,0,0,0,0,0,0,0,0,0,0,0,0,0,0,0,0,0,0,0,0,0,0,0,0,0,0,0,0,0,0,0,0,0,0,0,0,0],"sum_hessian":[5.569754E3,2.4957864E3,3.0739678E3,1.0217195E3,1.4740669E3,2.1725752E3,9.0139246E2,3.3295145E2,6.88768E2,7.481155E2,7.259514E2,1.01568384E3,1.1568914E3,4.5269443E2,4.4869803E2,1.0379293E2,2.2915851E2,3.9981705E2,2.88951E2,9.0513084E1,6.576024E2,3.8955817E2,3.3639328E2,8.088601E2,2.0682375E2,8.5818365E2,2.9870773E2,3.6485837E2,8.783606E1,1.8706221E2,2.616358E2,1.199451E0,1.0259348E2,1.4510776E0,2.2770743E2,1.7876184E2,2.2105519E2,5.88935E0,2.830616E2,1.9813445E0,8.853174E1,3.8555367E1,6.1904706E2,3.810688E2,8.489376E0,2.2487457E1,3.1390582E2,2.8553323E2,5.233269E2,1.0541007E2,1.01413666E2,1.3908426E1,8.442752E2,2.7740974E1,2.7096674E2,9.480016E0,3.5537836E2,2.7336716E1,6.0499348E1,1.8006052E2,7.0016823E0,2.5922913E2,2.4066896E0],"tree_param":{"num_deleted":"0","num_feature":"73","num_nodes":"63","size_leaf_vector":"1"}},{"base_weights":[1.1133495E-2,-4.9879515E-1,4.3804425E-1,-8.8272965E-1,-3.1740287E-1,1.5718259E-1,7.9549056E-1,-1.0564336E0,-7.094506E-1,-5.11711E-1,-1.6175534E-1,-2.3383448E-2,3.6161226E-1,5.983222E-1,1.0015396E0,-8.856921E-1,-1.2529036E0,-7.30972E-1,5.549313E-1,-5.3347534E-1,6.4732295E-1,-7.4498735E-2,-4.207815E-1,-4.6473178E-1,6.2143557E-2,5.2149963E-1,1.9001862E-1,6.303499E-1,-6.069881E-1,8.7246644E-1,1.2017983E0,-7.0619723E-3,-2.8704047E-2,-3.822563E-2,4.1097873E-3,-3.555922E-2,-1.984229E-2,4.5703202E-2,-2.2904018E-4,-2.3565177E-2,-1.2714216E-2,-3.221285E-2,2.887937E-2,-8.449773E-3,1.5091968E-3,1.8124856E-2,-1.3630729E-2,-1.5438226E-2,3.9143667E-2,-1.1160317E-3,1.05174575E-2,-1.1307156E-3,1.7841348E-2,2.5890854E-3,1.5048358E-2,3.1052852E-2,1.7276078E-2,-3.056409E-2,1.1663184E-2,2.2985408E-2,3.541186E-2,3.4225662E-3,3.665164E-2],"categories":[],"categories_nodes":[],"categories_segments":[],"categories_sizes":[],"default_left":[0,0,0,0,0,0,0,0,0,0,0,0,0,0,0,0,0,0,0,0,0,0,0,0,0,0,0,0,0,0,0,0,0,0,0,0,0,0,0,0,0,0,0,0,0,0,0,0,0,0,0,0,0,0,0,0,0,0,0,0,0,0,0],"id":13,"left_children":[1,3,5,7,9,11,13,15,17,19,21,23,25,27,29,31,33,35,37,39,41,43,45,47,49,51,53,55,57,59,61,-1,-1,-1,-1,-1,-1,-1,-1,-1,-1,-1,-1,-1,-1,-1,-1,-1,-1,-1,-1,-1,-1,-1,-1,-1,-1,-1,-1,-1,-1,-1,-1],"loss_changes":[1.1916207E3,1.734364E2,2.989892E2,2.3323792E1,5.119821E1,6.1642197E1,5.2651062E1,1.2220123E1,1.1383591E1,1.9357315E1,2.1280293E1,3.3530922E1,2.1387512E1,2.6335007E1,1.547998E1,9.763702E0,5.5689697E0,1.1766586E1,4.000191E0,2.0129745E1,8.817827E0,1.8281496E1,8.443703E0,1.3397181E1,2.1342136E1,1.6596222E1,1.2215451E1,1.3855377E1,7.7408676E0,1.1940979E1,5.234192E0,0E0,0E0,0E0,0E0,0E0,0E0,0E0,0E0,0E0,0E0,0E0,0E0,0E0,0E0,0E0,0E0,0E0,0E0,0E0,0E0,0E0,0E0,0E0,0E0,0E0,0E0,0E0,0E0,0E0,0E0,0E0,0E0],"parents":[2147483647,0,0,1,1,2,2,3,3,4,4,5,5,6,6,7,7,8,8,9,9,10,10,11,11,12,12,13,13,14,14,15,15,16,16,17,17,18,18,19,19,20,20,21,21,22,22,23,23,24,24,25,25,26,26,27,27,28,28,29,29,30,30],"right_children":[2,4,6,8,10,12,14,16,18,20,22,24,26,28,30,32,34,36,38,40,42,44,46,48,50,52,54,56,58,60,62,-1,-1,-1,-1,-1,-1,-1,-1,-1,-1,-1,-1,-1,-1,-1,-1,-1,-1,-1,-1,-1,-1,-1,-1,-1,-1,-1,-1,-1,-1,-1,-1],"split_conditions":[-1.383922E1,-1.177E3,9.471246E1,-2.0173913E-1,-1.1904762E-1,1E-1,1.233E3,7.4E-1,7.064008E-1,1.75E2,2.8E0,-5.34E2,3.7E1,1.2E1,2.5228397E2,-6.3E0,-4.325076E1,-8.4428705E-2,5.102041E-1,-1.3833412E2,-3.6666667E-1,7.62E2,-1.101791E-1,8.935377E1,2.97E1,5.21E2,6.5038795E1,4.45E2,1.47E1,1E0,5.625E-1,-7.0619723E-3,-2.8704047E-2,-3.822563E-2,4.1097873E-3,-3.555922E-2,-1.984229E-2,4.5703202E-2,-2.2904018E-4,-2.3565177E-2,-1.2714216E-2,-3.221285E-2,2.887937E-2,-8.449773E-3,1.5091968E-3,1.8124856E-2,-1.3630729E-2,-1.5438226E-2,3.9143667E-2,-1.1160317E-3,1.05174575E-2,-1.1307156E-3,1.7841348E-2,2.5890854E-3,1.5048358E-2,3.1052852E-2,1.7276078E-2,-3.056409E-2,1.1663184E-2,2.2985408E-2,3.541186E-2,3.4225662E-3,3.665164E-2],"split_indices":[17,5,17,23,23,20,5,28,52,1,62,5,10,62,17,62,17,47,24,17,29,3,53,17,61,3,17,4,62,69,21,0,0,0,0,0,0,0,0,0,0,0,0,0,0,0,0,0,0,0,0,0,0,0,0,0,0,0,0,0,0,0,0],"split_type":[0,0,0,0,0,0,0,0,0,0,0,0,0,0,0,0,0,0,0,0,0,0,0,0,0,0,0,0,0,0,0,0,0,0,0,0,0,0,0,0,0,0,0,0,0,0,0,0,0,0,0,0,0,0,0,0,0,0,0,0,0,0,0],"sum_hessian":[5.4718296E3,2.4933953E3,2.978434E3,7.98797E2,1.6945983E3,1.6687006E3,1.3097335E3,3.963641E2,4.0243286E2,7.5267816E2,9.4192017E2,8.8653705E2,7.821636E2,6.712848E2,6.384487E2,2.1501457E2,1.8134953E2,3.961124E2,6.3204722E0,7.393347E2,1.3343497E1,7.0553754E2,2.3638261E2,1.431907E2,7.433463E2,4.0383725E2,3.7832632E2,6.543737E2,1.6911083E1,3.9148254E2,2.4696617E2,2.16191E1,1.9339548E2,1.7869632E2,2.653206E0,5.0465504E1,3.456469E2,1.6947626E0,4.6257095E0,2.2230002E2,5.1703467E2,1.6937032E0,1.1649795E1,2.6478027E2,4.4075723E2,6.9589963E0,2.2942363E2,1.3995511E2,3.2355974E0,5.535592E2,1.8978712E2,4.680762E1,3.5702963E2,2.8480438E2,9.352194E1,7.549666E1,5.788771E2,1.1947031E1,4.9640517E0,2.9362256E2,9.785999E1,4.5631533E0,2.4240302E2],"tree_param":{"num_deleted":"0","num_feature":"73","num_nodes":"63","size_leaf_vector":"1"}},{"base_weights":[-1.3436115E-3,-4.4332346E-1,5.0546885E-1,-7.4212563E-1,-1.6442913E-1,2.9550838E-1,9.169297E-1,-1.0362294E0,-5.810253E-1,-2.4607025E-1,3.4412656E-2,1.7367817E-1,4.604218E-1,7.9516757E-1,1.1085521E0,-1.3984374E0,-9.4003963E-1,-4.5076916E-1,-7.716875E-1,4.4040695E-1,-2.6953518E-1,1.6025195E-1,-1.8951815E-1,2.6040533E-1,-1.780863E-2,3.8416564E-1,8.171925E-1,8.887166E-1,3.8504708E-1,9.998096E-1,1.3431342E0,-4.2750217E-2,1.0342832E-3,-1.8650733E-2,-3.0971624E-2,-1.4942974E-2,6.299645E-3,7.192993E-3,-2.4591144E-2,2.4896003E-2,-9.414889E-3,-7.5185653E-3,-3.0598015E-2,6.85035E-3,-1.43680135E-2,-1.2458878E-2,3.928406E-3,8.21498E-3,-3.4816235E-2,1.8990865E-2,-2.2249846E-3,-3.5451928E-3,1.3278772E-2,2.6238048E-2,-2.2752952E-2,-1.9525625E-2,2.7044833E-2,1.4413479E-2,-1.6963504E-2,2.0687206E-2,3.317338E-2,4.1334007E-2,-1.4229307E-2],"categories":[],"categories_nodes":[],"categories_segments":[],"categories_sizes":[],"default_left":[0,0,0,0,0,0,0,0,0,0,0,0,0,0,0,0,0,0,0,0,0,0,0,0,0,0,0,0,0,0,0,0,0,0,0,0,0,0,0,0,0,0,0,0,0,0,0,0,0,0,0,0,0,0,0,0,0,0,0,0,0,0,0],"id":14,"left_children":[1,3,5,7,9,11,13,15,17,19,21,23,25,27,29,31,33,35,37,39,41,43,45,47,49,51,53,55,57,59,61,-1,-1,-1,-1,-1,-1,-1,-1,-1,-1,-1,-1,-1,-1,-1,-1,-1,-1,-1,-1,-1,-1,-1,-1,-1,-1,-1,-1,-1,-1,-1,-1],"loss_changes":[1.2295753E3,2.4422363E2,2.2063275E2,6.645288E1,2.4648972E1,3.3966232E1,1.926538E1,1.6091553E1,2.2417328E1,1.7453926E1,1.2504985E1,1.6216341E1,1.9257248E1,2.0050232E1,7.150543E0,3.9623108E0,1.1053253E1,1.7211433E1,1.8198227E1,1.0820381E1,1.4524406E1,1.2468486E1,1.1611246E1,1.3138275E1,1.1243112E1,1.7513123E1,1.2042084E1,9.085815E0,9.383686E0,6.845215E0,7.1142883E0,0E0,0E0,0E0,0E0,0E0,0E0,0E0,0E0,0E0,0E0,0E0,0E0,0E0,0E0,0E0,0E0,0E0,0E0,0E0,0E0,0E0,0E0,0E0,0E0,0E0,0E0,0E0,0E0,0E0,0E0,0E0,0E0],"parents":[2147483647,0,0,1,1,2,2,3,3,4,4,5,5,6,6,7,7,8,8,9,9,10,10,11,11,12,12,13,13,14,14,15,15,16,16,17,17,18,18,19,19,20,20,21,21,22,22,23,23,24,24,25,25,26,26,27,27,28,28,29,29,30,30],"right_children":[2,4,6,8,10,12,14,16,18,20,22,24,26,28,30,32,34,36,38,40,42,44,46,48,50,52,54,56,58,60,62,-1,-1,-1,-1,-1,-1,-1,-1,-1,-1,-1,-1,-1,-1,-1,-1,-1,-1,-1,-1,-1,-1,-1,-1,-1,-1,-1,-1,-1,-1,-1,-1],"split_conditions":[1.3041025E1,-1.0695488E2,1.705266E2,-2.3357184E2,5.5555556E-2,9.0283966E1,2.7895898E2,-4.1407227E2,8E-1,-9.5E0,1.3E0,2.9E0,1E0,5.3E0,1E0,5.554814E-1,-3.9E0,3.43E1,2.0833333E-1,2.7E1,2.01E2,1.2670982E-1,1.5538341E3,8.246784E-1,5.6040394E-1,1.5031847E3,1.32E2,-2.35E2,1.18E1,3.7261434E-2,1.8258499E3,-4.2750217E-2,1.0342832E-3,-1.8650733E-2,-3.0971624E-2,-1.4942974E-2,6.299645E-3,7.192993E-3,-2.4591144E-2,2.4896003E-2,-9.414889E-3,-7.5185653E-3,-3.0598015E-2,6.85035E-3,-1.43680135E-2,-1.2458878E-2,3.928406E-3,8.21498E-3,-3.4816235E-2,1.8990865E-2,-2.2249846E-3,-3.5451928E-3,1.3278772E-2,2.6238048E-2,-2.2752952E-2,-1.9525625E-2,2.7044833E-2,1.4413479E-2,-1.6963504E-2,2.0687206E-2,3.317338E-2,4.1334007E-2,-1.4229307E-2],"split_indices":[14,14,14,14,32,14,14,14,62,62,62,62,69,62,69,48,62,61,21,2,0,37,15,46,42,15,0,8,62,50,13,0,0,0,0,0,0,0,0,0,0,0,0,0,0,0,0,0,0,0,0,0,0,0,0,0,0,0,0,0,0,0,0],"split_type":[0,0,0,0,0,0,0,0,0,0,0,0,0,0,0,0,0,0,0,0,0,0,0,0,0,0,0,0,0,0,0,0,0,0,0,0,0,0,0,0,0,0,0,0,0,0,0,0,0,0,0,0,0,0,0,0,0,0,0,0,0,0,0],"sum_hessian":[5.487153E3,2.9311167E3,2.5560361E3,1.4142522E3,1.5168645E3,1.6935624E3,8.6247375E2,4.9859262E2,9.156596E2,1.0751772E3,4.4168732E2,9.751909E2,7.1837146E2,5.3051764E2,3.3195612E2,1.0178332E2,3.9680933E2,5.4600525E2,3.6965433E2,3.494938E1,1.0402279E3,2.8296036E2,1.5872694E2,6.709486E2,3.0424225E2,5.935771E2,1.2479439E2,4.3103174E2,9.948592E1,2.304098E2,1.01546295E2,9.9935776E1,1.847545E0,9.096389E1,3.0584543E2,5.0973886E2,3.62664E1,1.6572464E1,3.5308185E2,2.2982035E1,1.1967345E1,1.01595135E3,2.4276512E1,2.5629932E2,2.6661055E1,9.294695E1,6.577999E1,6.654675E2,5.4811044E0,2.3430126E1,2.8081213E2,6.1770588E1,5.318065E2,1.20836525E2,3.957859E0,3.1369097E0,4.2789484E2,9.086069E1,8.625234E0,6.057578E1,1.6983403E2,9.9883026E1,1.6632717E0],"tree_param":{"num_deleted":"0","num_feature":"73","num_nodes":"63","size_leaf_vector":"1"}},{"base_weights":[7.477294E-4,-3.4879172E-1,5.878111E-1,-7.325389E-1,-1.13405176E-1,3.7997496E-1,8.787635E-1,-1.123944E0,-6.131551E-1,-2.4716708E-1,5.130886E-2,2.6665503E-1,5.6208104E-1,7.552568E-1,1.068818E0,-1.14087E0,2.9774675E-1,-1.9642802E-1,-6.628378E-1,-2.0152763E-1,-6.150436E-1,2.425589E-1,-6.4420745E-2,-4.1116902E-1,3.023787E-1,7.859252E-2,6.297918E-1,7.886809E-1,1.0600405E-1,1.1710312E0,7.7978534E-1,-2.2205433E-2,-3.5953686E-2,-2.7704412E-2,3.1561352E-2,1.4271956E-2,-1.0293287E-2,-1.3862751E-2,-2.245658E-2,1.6522905E-2,-6.539601E-3,-2.2071179E-2,-3.2099446E-3,9.851342E-3,-7.0961067E-3,-3.3239292E-3,1.2292928E-2,-2.9849414E-2,4.9188756E-3,1.28397755E-2,4.964177E-3,5.111494E-3,-3.6230754E-2,1.9703267E-2,-1.4896744E-2,2.2097103E-2,3.3373084E-2,1.36844665E-2,-1.788002E-2,-3.3406678E-3,3.5512302E-2,-2.181578E-2,2.5487732E-2],"categories":[],"categories_nodes":[],"categories_segments":[],"categories_sizes":[],"default_left":[0,0,0,0,0,0,0,0,0,0,0,0,0,0,0,0,0,0,0,0,0,0,0,0,0,0,0,0,0,0,0,0,0,0,0,0,0,0,0,0,0,0,0,0,0,0,0,0,0,0,0,0,0,0,0,0,0,0,0,0,0,0,0],"id":15,"left_children":[1,3,5,7,9,11,13,15,17,19,21,23,25,27,29,31,33,35,37,39,41,43,45,47,49,51,53,55,57,59,61,-1,-1,-1,-1,-1,-1,-1,-1,-1,-1,-1,-1,-1,-1,-1,-1,-1,-1,-1,-1,-1,-1,-1,-1,-1,-1,-1,-1,-1,-1,-1,-1],"loss_changes":[1.1254203E3,3.1043738E2,1.23436646E2,6.0372803E1,4.6983505E1,2.452475E1,1.9194092E1,7.66037E0,2.0647339E1,1.9631737E1,2.1180246E1,1.801756E1,1.4935837E1,1.1198212E1,8.931152E0,6.05484E0,4.9992237E0,1.0842928E1,1.5075439E1,1.30998535E1,7.8524933E0,1.49082775E1,1.3163825E1,1.2727343E1,1.2010826E1,6.9797354E0,1.252507E1,7.5195007E0,6.8124113E0,4.112335E0,1.0090378E1,0E0,0E0,0E0,0E0,0E0,0E0,0E0,0E0,0E0,0E0,0E0,0E0,0E0,0E0,0E0,0E0,0E0,0E0,0E0,0E0,0E0,0E0,0E0,0E0,0E0,0E0,0E0,0E0,0E0,0E0,0E0,0E0],"parents":[2147483647,0,0,1,1,2,2,3,3,4,4,5,5,6,6,7,7,8,8,9,9,10,10,11,11,12,12,13,13,14,14,15,15,16,16,17,17,18,18,19,19,20,20,21,21,22,22,23,23,24,24,25,25,26,26,27,27,28,28,29,29,30,30],"right_children":[2,4,6,8,10,12,14,16,18,20,22,24,26,28,30,32,34,36,38,40,42,44,46,48,50,52,54,56,58,60,62,-1,-1,-1,-1,-1,-1,-1,-1,-1,-1,-1,-1,-1,-1,-1,-1,-1,-1,-1,-1,-1,-1,-1,-1,-1,-1,-1,-1,-1,-1,-1,-1],"split_conditions":[4.9766823E1,-1.177799E2,1.705266E2,-2.463685E2,-1.256049E1,9.471246E1,2.3244218E2,2E-1,-7E0,5.9E1,7.44E2,-5.8270725E1,0E0,4.56E2,4E0,-6.8E0,3.6E1,1.6229008E3,5.833333E-1,-1.13E1,1.4906191E-2,2.7E1,3.19E1,5.7497495E-1,1.5E2,7.647059E-1,1.2E1,6.4981484E-1,7.277626E-1,2.17E1,2.6666668E-1,-2.2205433E-2,-3.5953686E-2,-2.7704412E-2,3.1561352E-2,1.4271956E-2,-1.0293287E-2,-1.3862751E-2,-2.245658E-2,1.6522905E-2,-6.539601E-3,-2.2071179E-2,-3.2099446E-3,9.851342E-3,-7.0961067E-3,-3.3239292E-3,1.2292928E-2,-2.9849414E-2,4.9188756E-3,1.28397755E-2,4.964177E-3,5.111494E-3,-3.6230754E-2,1.9703267E-2,-1.4896744E-2,2.2097103E-2,3.3373084E-2,1.36844665E-2,-1.788002E-2,-3.3406678E-3,3.5512302E-2,-2.181578E-2,2.5487732E-2],"split_indices":[14,14,14,17,17,17,17,20,62,2,4,17,35,8,62,62,9,13,22,62,50,2,61,52,6,24,62,43,46,61,25,0,0,0,0,0,0,0,0,0,0,0,0,0,0,0,0,0,0,0,0,0,0,0,0,0,0,0,0,0,0,0,0],"split_type":[0,0,0,0,0,0,0,0,0,0,0,0,0,0,0,0,0,0,0,0,0,0,0,0,0,0,0,0,0,0,0,0,0,0,0,0,0,0,0,0,0,0,0,0,0,0,0,0,0,0,0,0,0,0,0,0,0,0,0,0,0,0,0],"sum_hessian":[5.482457E3,3.4366628E3,2.0457944E3,1.3057712E3,2.1308916E3,1.1946941E3,8.511003E2,3.032238E2,1.0025475E3,1.1756569E3,9.552347E2,7.379506E2,4.5674347E2,5.1888025E2,3.3222006E2,2.9985144E2,3.3723547E0,1.0732058E2,8.952269E2,1.0472775E3,1.2837941E2,3.59705E2,5.955297E2,3.6419254E1,7.015314E2,5.6373016E1,4.0037045E2,4.9327136E2,2.560886E1,2.4317303E2,8.904703E1,3.9419693E1,2.6043173E2,1.2019988E0,2.1703558E0,1.8822813E1,8.8497765E1,2.697823E2,6.2544464E2,2.1727371E1,1.02555E3,1.0337856E2,2.5000843E1,3.053271E2,5.4377872E1,5.43172E2,5.2357716E1,1.7710976E1,1.8708277E1,3.6474512E2,3.3678622E2,5.3427883E1,2.9451325E0,3.914104E2,8.960065E0,4.2770428E2,6.556711E1,1.7320158E1,8.288702E0,2.3107567E0,2.4086227E2,3.52528E0,8.552174E1],"tree_param":{"num_deleted":"0","num_feature":"73","num_nodes":"63","size_leaf_vector":"1"}},{"base_weights":[8.690133E-3,-4.796785E-1,4.0204018E-1,-8.5574526E-1,-3.1701854E-1,2.2238852E-1,8.469335E-1,-1.1213953E0,-7.264062E-1,-5.8311296E-1,-2.4638844E-1,4.430636E-2,3.8071826E-1,6.6836715E-1,1.0305265E0,-1.137556E0,3.6427176E-1,-7.503631E-1,3.746696E-1,1.2344545E0,-6.103727E-1,-1.8785428E-1,-5.8146405E-1,1.1667921E-1,-2.3302425E-1,4.87293E-1,1.8713777E-1,7.475492E-1,3.304798E-1,9.1740906E-1,1.2943606E0,-4.0399235E-2,-3.0926874E-2,-1.1684355E-2,2.8300889E-2,-1.9639503E-2,-3.1101594E-2,-1.156745E-2,3.382295E-2,5.2903324E-2,-5.2732774E-3,-6.896283E-3,-2.1065885E-2,9.0397045E-4,-8.063243E-3,-1.9100191E-2,1.0597407E-2,-4.4934647E-4,7.5727734E-3,8.838869E-3,-9.3220575E-3,1.0308877E-2,1.9299729E-2,1.6302569E-2,2.7447867E-3,1.8565176E-2,2.7080106E-2,6.2415847E-3,3.0534077E-2,1.5868718E-2,3.0445654E-2,4.0523008E-2,1.5455678E-2],"categories":[],"categories_nodes":[],"categories_segments":[],"categories_sizes":[],"default_left":[0,0,0,0,0,0,0,0,0,0,0,0,0,0,0,0,0,0,0,0,0,0,0,0,0,0,0,0,0,0,0,0,0,0,0,0,0,0,0,0,0,0,0,0,0,0,0,0,0,0,0,0,0,0,0,0,0,0,0,0,0,0,0],"id":16,"left_children":[1,3,5,7,9,11,13,15,17,19,21,23,25,27,29,31,33,35,37,39,41,43,45,47,49,51,53,55,57,59,61,-1,-1,-1,-1,-1,-1,-1,-1,-1,-1,-1,-1,-1,-1,-1,-1,-1,-1,-1,-1,-1,-1,-1,-1,-1,-1,-1,-1,-1,-1,-1,-1],"loss_changes":[1.0558546E3,1.4972247E2,2.4313309E2,2.4602966E1,3.205609E1,6.116738E1,2.8008362E1,6.186157E0,1.3480072E1,1.8522713E1,2.647937E1,2.0548372E1,2.360466E1,1.1701492E1,1.1638275E1,3.9205933E0,1.8271651E0,1.2752533E1,6.914182E0,4.510091E0,1.2207092E1,2.0390907E1,1.060363E1,1.4506783E1,8.781558E0,1.6369644E1,1.3902542E1,6.649338E0,7.073719E0,1.09791565E1,4.8651123E0,0E0,0E0,0E0,0E0,0E0,0E0,0E0,0E0,0E0,0E0,0E0,0E0,0E0,0E0,0E0,0E0,0E0,0E0,0E0,0E0,0E0,0E0,0E0,0E0,0E0,0E0,0E0,0E0,0E0,0E0,0E0,0E0],"parents":[2147483647,0,0,1,1,2,2,3,3,4,4,5,5,6,6,7,7,8,8,9,9,10,10,11,11,12,12,13,13,14,14,15,15,16,16,17,17,18,18,19,19,20,20,21,21,22,22,23,23,24,24,25,25,26,26,27,27,28,28,29,29,30,30],"right_children":[2,4,6,8,10,12,14,16,18,20,22,24,26,28,30,32,34,36,38,40,42,44,46,48,50,52,54,56,58,60,62,-1,-1,-1,-1,-1,-1,-1,-1,-1,-1,-1,-1,-1,-1,-1,-1,-1,-1,-1,-1,-1,-1,-1,-1,-1,-1,-1,-1,-1,-1,-1,-1],"split_conditions":[-2.1299856E1,-1.8529375E2,1.6754732E2,-3.1233722E2,-1.2626094E2,5.3196823E1,2.4800165E2,-7.880435E-2,1E2,3.035284E-1,6.5E1,4.4E0,2.4E0,5.3E0,1E0,-4.3446826E2,-6.032909E-2,1E0,-1E-1,-1.6071428E-1,-2.63E2,-3.2E0,7.5300366E-2,-1E0,3E-1,1.2E1,5.33E2,4.1452372E-1,1.23E2,2.0202223E2,6.864797E-1,-4.0399235E-2,-3.0926874E-2,-1.1684355E-2,2.8300889E-2,-1.9639503E-2,-3.1101594E-2,-1.156745E-2,3.382295E-2,5.2903324E-2,-5.2732774E-3,-6.896283E-3,-2.1065885E-2,9.0397045E-4,-8.063243E-3,-1.9100191E-2,1.0597407E-2,-4.4934647E-4,7.5727734E-3,8.838869E-3,-9.3220575E-3,1.0308877E-2,1.9299729E-2,1.6302569E-2,2.7447867E-3,1.8565176E-2,2.7080106E-2,6.2415847E-3,3.0534077E-2,1.5868718E-2,3.0445654E-2,4.0523008E-2,1.5455678E-2],"split_indices":[14,14,14,14,17,14,14,23,1,57,2,62,62,62,69,14,47,69,20,32,8,62,38,11,31,11,4,58,1,17,42,0,0,0,0,0,0,0,0,0,0,0,0,0,0,0,0,0,0,0,0,0,0,0,0,0,0,0,0,0,0,0,0],"split_type":[0,0,0,0,0,0,0,0,0,0,0,0,0,0,0,0,0,0,0,0,0,0,0,0,0,0,0,0,0,0,0,0,0,0,0,0,0,0,0,0,0,0,0,0,0,0,0,0,0,0,0,0,0,0,0,0,0,0,0,0,0,0,0],"sum_hessian":[5.4943813E3,2.451041E3,3.04334E3,7.3876636E2,1.7122748E3,2.1689854E3,8.743547E2,2.3939722E2,4.9936917E2,3.5763852E2,1.3546362E3,1.02141907E3,1.1475664E3,4.4559778E2,4.287569E2,2.3705293E2,2.34428E0,4.8904715E2,1.0322028E1,4.630208E0,3.530083E2,1.1545153E3,2.0012097E2,8.104908E2,2.1092828E2,7.3912665E2,4.0843973E2,3.600173E2,8.55805E1,3.032271E2,1.25529785E2,7.615036E1,1.6090257E2,1.1608016E0,1.1834785E0,3.6899796E2,1.2004917E2,5.378149E0,4.9438787E0,3.1850157E0,1.4451923E0,6.930925E1,2.8369907E2,3.1272168E2,8.4179364E2,1.8926106E2,1.0859899E1,4.1189407E2,3.9859668E2,2.6718678E1,1.8420961E2,3.8648138E2,3.526453E2,8.545069E1,3.2298904E2,1.9948564E2,1.6053165E2,7.374723E1,1.1833267E1,6.21009E1,2.411262E2,1.1637174E2,9.158044E0],"tree_param":{"num_deleted":"0","num_feature":"73","num_nodes":"63","size_leaf_vector":"1"}},{"base_weights":[-2.9281443E-3,-3.3902082E-1,5.558045E-1,-6.3380563E-1,-8.211285E-2,3.66922E-1,8.2711583E-1,-9.6505547E-1,-4.791677E-1,-2.572282E-1,2.7070394E-2,-4.0037203E-1,3.8969588E-1,7.3014045E-1,1.109309E0,-1.2057711E0,-8.364319E-1,-3.4632778E-1,-6.6336864E-1,3.1676292E-2,-3.3475086E-1,1.1225718E-1,-2.6590195E-1,-9.189157E-1,1.1243399E-1,5.261281E-1,2.6856917E-1,6.1118984E-1,9.410405E-1,4.2861462E-1,1.201048E0,-3.7135325E-2,3.936024E-3,9.916663E-3,-2.5880227E-2,-4.7593736E-3,-1.5263228E-2,1.4436344E-2,-2.0686543E-2,8.817657E-3,-5.773205E-3,-2.956931E-2,-9.011222E-3,8.27209E-3,-2.1899567E-4,-5.5726394E-3,-2.0456795E-2,-6.806911E-4,-3.5349693E-2,3.8706712E-2,-8.028303E-3,1.2664844E-2,2.036413E-2,4.489459E-3,1.55166825E-2,-2.1084823E-2,1.9104607E-2,2.5632067E-2,3.7840288E-2,1.1245129E-3,2.9104521E-2,3.705896E-2,6.864624E-3],"categories":[],"categories_nodes":[],"categories_segments":[],"categories_sizes":[],"default_left":[0,0,0,0,0,0,0,0,0,0,0,0,0,0,0,0,0,0,0,0,0,0,0,0,0,0,0,0,0,0,0,0,0,0,0,0,0,0,0,0,0,0,0,0,0,0,0,0,0,0,0,0,0,0,0,0,0,0,0,0,0,0,0],"id":17,"left_children":[1,3,5,7,9,11,13,15,17,19,21,23,25,27,29,31,33,35,37,39,41,43,45,47,49,51,53,55,57,59,61,-1,-1,-1,-1,-1,-1,-1,-1,-1,-1,-1,-1,-1,-1,-1,-1,-1,-1,-1,-1,-1,-1,-1,-1,-1,-1,-1,-1,-1,-1,-1,-1],"loss_changes":[1.0261207E3,2.583424E2,1.04872375E2,8.0916504E1,3.4885807E1,2.1331223E1,2.2220581E1,1.461557E1,2.6320969E1,1.5703575E1,2.8095804E1,9.522854E0,1.931543E1,1.5211029E1,1.2806E1,7.6010895E0,1.0457245E1,1.9203583E1,1.3923904E1,8.822801E0,1.2067165E1,1.7044027E1,8.329241E0,4.093462E0,8.716183E0,8.485916E0,1.8424858E1,1.4093994E1,5.1681824E0,5.6591635E0,5.9585266E0,0E0,0E0,0E0,0E0,0E0,0E0,0E0,0E0,0E0,0E0,0E0,0E0,0E0,0E0,0E0,0E0,0E0,0E0,0E0,0E0,0E0,0E0,0E0,0E0,0E0,0E0,0E0,0E0,0E0,0E0,0E0,0E0],"parents":[2147483647,0,0,1,1,2,2,3,3,4,4,5,5,6,6,7,7,8,8,9,9,10,10,11,11,12,12,13,13,14,14,15,15,16,16,17,17,18,18,19,19,20,20,21,21,22,22,23,23,24,24,25,25,26,26,27,27,28,28,29,29,30,30],"right_children":[2,4,6,8,10,12,14,16,18,20,22,24,26,28,30,32,34,36,38,40,42,44,46,48,50,52,54,56,58,60,62,-1,-1,-1,-1,-1,-1,-1,-1,-1,-1,-1,-1,-1,-1,-1,-1,-1,-1,-1,-1,-1,-1,-1,-1,-1,-1,-1,-1,-1,-1,-1,-1],"split_conditions":[4.9766823E1,-8.913153E1,1.705266E2,-2.2856926E2,-3.064795E1,-6.0048733E1,1E0,-3.4538806E2,8E-1,2.39E1,2.8E1,5.744559E-1,1E-1,7.222222E-1,5.625E-1,5.357143E-2,3E0,3.7499067E-1,2E-1,-5.3E0,6E0,7.39E2,4.7398E-2,6E-2,3.8269395E-1,2.0149384E-2,1.0857224E2,9.538461E-2,7.834195E-2,3.4E2,1.7425592E3,-3.7135325E-2,3.936024E-3,9.916663E-3,-2.5880227E-2,-4.7593736E-3,-1.5263228E-2,1.4436344E-2,-2.0686543E-2,8.817657E-3,-5.773205E-3,-2.956931E-2,-9.011222E-3,8.27209E-3,-2.1899567E-4,-5.5726394E-3,-2.0456795E-2,-6.806911E-4,-3.5349693E-2,3.8706712E-2,-8.028303E-3,1.2664844E-2,2.036413E-2,4.489459E-3,1.55166825E-2,-2.1084823E-2,1.9104607E-2,2.5632067E-2,3.7840288E-2,1.1245129E-3,2.9104521E-2,3.705896E-2,6.864624E-3],"split_indices":[14,14,14,14,17,17,69,14,62,60,2,52,62,21,21,32,2,55,21,62,9,4,40,29,58,56,17,26,50,6,16,0,0,0,0,0,0,0,0,0,0,0,0,0,0,0,0,0,0,0,0,0,0,0,0,0,0,0,0,0,0,0,0],"split_type":[0,0,0,0,0,0,0,0,0,0,0,0,0,0,0,0,0,0,0,0,0,0,0,0,0,0,0,0,0,0,0,0,0,0,0,0,0,0,0,0,0,0,0,0,0,0,0,0,0,0,0,0,0,0,0,0,0,0,0,0,0,0,0],"sum_hessian":[5.462307E3,3.4109329E3,2.0513743E3,1.5876932E3,1.8232397E3,1.2107926E3,8.4058167E2,5.03629E2,1.0840642E3,6.99684E2,1.1235557E3,3.442347E1,1.1763691E3,6.282661E2,2.1231561E2,1.7247401E2,3.31155E2,6.315153E2,4.5254886E2,1.4815277E2,5.515312E2,8.7093353E2,2.526222E2,1.6722218E1,1.7701252E1,5.5165906E2,6.247101E2,4.041934E2,2.2407271E2,2.5889608E1,1.86426E2,1.6850581E2,3.9682035E0,7.0279565E0,3.2412704E2,2.9391653E2,3.3759882E2,9.73208E0,4.4281677E2,6.812553E1,8.002725E1,2.6279596E1,5.252516E2,3.6733835E2,5.0359518E2,2.1302591E2,3.9596275E1,3.997778E0,1.272444E1,3.7340803E0,1.3967172E1,3.3042053E2,2.2123856E2,4.2368246E2,2.0102762E2,7.227598E0,3.969658E2,1.7925395E2,4.4818756E1,1.5653152E1,1.0236456E1,1.798205E2,6.6055098E0],"tree_param":{"num_deleted":"0","num_feature":"73","num_nodes":"63","size_leaf_vector":"1"}},{"base_weights":[2.8596153E-3,-4.025564E-1,4.5072654E-1,-6.8026286E-1,-1.7430298E-1,3.0501458E-1,8.6896443E-1,-1.0481533E0,-5.793839E-1,-1.1815152E-1,-4.3909374E-1,1.9816114E-1,5.1926726E-1,7.206524E-1,1.0338277E0,-4.6433032E-1,-1.1020668E0,2.653019E-1,-6.036663E-1,-6.119816E-1,-9.38588E-2,-3.844044E-1,-1.2925099E0,-3.285516E-1,2.43381E-1,4.5055187E-1,8.5405326E-1,7.683615E-1,7.931516E-2,9.366219E-1,1.2458687E0,-2.2210315E-2,1.7883575E-2,5.1108417E-3,-3.35659E-2,1.4396925E-2,-2.8426565E-2,-2.1654814E-2,-1.4523833E-2,2.4996398E-2,-2.1063112E-2,-1.0583428E-2,-1.5836828E-3,-1.224486E-2,4.0247105E-2,4.614753E-3,-4.5192465E-2,-1.28659345E-2,9.405959E-3,1.2567133E-2,3.1558408E-3,1.8997276E-2,9.811931E-3,2.7980814E-2,7.272972E-3,-3.341326E-2,2.3523994E-2,1.3924733E-2,-2.022193E-2,2.8508648E-2,-1.6393114E-2,3.819107E-2,-1.0157191E-2],"categories":[],"categories_nodes":[],"categories_segments":[],"categories_sizes":[],"default_left":[0,0,0,0,0,0,0,0,0,0,0,0,0,0,0,0,0,0,0,0,0,0,0,0,0,0,0,0,0,0,0,0,0,0,0,0,0,0,0,0,0,0,0,0,0,0,0,0,0,0,0,0,0,0,0,0,0,0,0,0,0,0,0],"id":18,"left_children":[1,3,5,7,9,11,13,15,17,19,21,23,25,27,29,31,33,35,37,39,41,43,45,47,49,51,53,55,57,59,61,-1,-1,-1,-1,-1,-1,-1,-1,-1,-1,-1,-1,-1,-1,-1,-1,-1,-1,-1,-1,-1,-1,-1,-1,-1,-1,-1,-1,-1,-1,-1,-1],"loss_changes":[9.8082245E2,1.7960303E2,1.5614563E2,4.684973E1,2.3106369E1,4.3508194E1,1.5456268E1,8.111023E0,2.0789917E1,1.5374977E1,1.2204586E1,3.039199E1,1.4183899E1,1.0712723E1,5.253357E0,7.7258034E0,5.535034E0,7.950695E0,1.34644165E1,8.417053E0,1.3031972E1,1.1092915E1,5.1712093E0,6.642913E0,2.8397522E1,1.1694527E1,4.907425E0,1.0598312E1,7.704648E0,4.9297333E0,4.5151367E0,0E0,0E0,0E0,0E0,0E0,0E0,0E0,0E0,0E0,0E0,0E0,0E0,0E0,0E0,0E0,0E0,0E0,0E0,0E0,0E0,0E0,0E0,0E0,0E0,0E0,0E0,0E0,0E0,0E0,0E0,0E0,0E0],"parents":[2147483647,0,0,1,1,2,2,3,3,4,4,5,5,6,6,7,7,8,8,9,9,10,10,11,11,12,12,13,13,14,14,15,15,16,16,17,17,18,18,19,19,20,20,21,21,22,22,23,23,24,24,25,25,26,26,27,27,28,28,29,29,30,30],"right_children":[2,4,6,8,10,12,14,16,18,20,22,24,26,28,30,32,34,36,38,40,42,44,46,48,50,52,54,56,58,60,62,-1,-1,-1,-1,-1,-1,-1,-1,-1,-1,-1,-1,-1,-1,-1,-1,-1,-1,-1,-1,-1,-1,-1,-1,-1,-1,-1,-1,-1,-1,-1,-1],"split_conditions":[8.712792E0,-1.177799E2,1.9682973E2,-2.5241753E2,4.7E1,9.471246E1,2.7895898E2,2.18E1,5.59E2,-3.7777779E-1,3.04E2,-5.2172287E1,1E0,4.56E2,1E0,4.451094E-1,-1.37E2,4.4824788E-1,-3.0711692E-2,3.4993106E-1,2.28E1,6.9737285E-1,5.366391E-1,1.6E2,-2.5E1,1.85E2,1.8311873E2,-2.35E2,-2.4257652E-3,1.616022E-1,1.7704174E3,-2.2210315E-2,1.7883575E-2,5.1108417E-3,-3.35659E-2,1.4396925E-2,-2.8426565E-2,-2.1654814E-2,-1.4523833E-2,2.4996398E-2,-2.1063112E-2,-1.0583428E-2,-1.5836828E-3,-1.224486E-2,4.0247105E-2,4.614753E-3,-4.5192465E-2,-1.28659345E-2,9.405959E-3,1.2567133E-2,3.1558408E-3,1.8997276E-2,9.811931E-3,2.7980814E-2,7.272972E-3,-3.341326E-2,2.3523994E-2,1.3924733E-2,-2.022193E-2,2.8508648E-2,-1.6393114E-2,3.819107E-2,-1.0157191E-2],"split_indices":[14,14,14,17,2,17,14,60,4,32,0,17,69,8,69,57,2,58,50,58,61,52,52,10,2,64,14,8,41,38,16,0,0,0,0,0,0,0,0,0,0,0,0,0,0,0,0,0,0,0,0,0,0,0,0,0,0,0,0,0,0,0,0],"split_type":[0,0,0,0,0,0,0,0,0,0,0,0,0,0,0,0,0,0,0,0,0,0,0,0,0,0,0,0,0,0,0,0,0,0,0,0,0,0,0,0,0,0,0,0,0,0,0,0,0,0,0,0,0,0,0,0,0,0,0,0,0,0,0],"sum_hessian":[5.399826E3,2.834287E3,2.565539E3,1.277737E3,1.55655E3,1.9039441E3,6.6159503E2,2.7294766E2,1.0047894E3,1.2854122E3,2.7113794E2,1.271659E3,6.3228503E2,3.5110754E2,3.104875E2,2.3887287E1,2.4906036E2,2.780038E1,9.76989E2,5.913363E1,1.2262786E3,2.5617212E2,1.4965804E1,1.0004835E2,1.1716107E3,5.265546E2,1.0573041E2,3.2661273E2,2.4494814E1,2.1660608E2,9.388139E1,1.9193472E1,4.6938148E0,3.125765E0,2.459346E2,2.4134485E1,3.6658971E0,4.8879193E2,4.8819708E2,2.9871101E0,5.614652E1,1.6684064E2,1.0594379E3,2.53447E2,2.7251139E0,1.9643829E0,1.3001422E1,8.681698E1,1.3231369E1,5.151891E2,6.5642163E2,2.1070456E2,3.1585004E2,9.3219536E1,1.2510869E1,2.1356158E0,3.244771E2,1.6467009E1,8.027806E0,2.1498422E2,1.6218483E0,9.249206E1,1.3893337E0],"tree_param":{"num_deleted":"0","num_feature":"73","num_nodes":"63","size_leaf_vector":"1"}},{"base_weights":[4.160147E-3,-4.556146E-1,3.754358E-1,-8.176097E-1,-3.0961308E-1,1.3039827E-1,6.666085E-1,-1.0168874E0,-6.573075E-1,-4.5219973E-1,-1.9244167E-1,1.9764525E-1,-1.04825914E-1,5.615685E-1,9.82581E-1,-8.369595E-1,-1.1252021E0,-3.074486E-1,-7.703639E-1,4.716793E-1,-4.7813657E-1,1.5107046E-1,-2.458988E-1,3.5124518E-2,3.2948342E-1,2.5793067E-1,-2.0236056E-1,5.802024E-1,-2.135143E-1,7.9200655E-1,1.2071244E0,-2.6061004E-2,2.3935376E-2,-3.4363333E-2,1.9013833E-3,-6.9399914E-3,-3.856539E-2,4.872013E-3,-2.4093565E-2,2.009396E-2,-2.2903414E-2,-1.4914925E-2,9.948905E-3,-1.8262237E-2,9.300066E-3,-1.1575155E-2,-2.4612898E-3,-1.6635211E-2,2.2279902E-3,7.804748E-3,2.0397045E-2,2.105169E-2,-3.6710242E-3,-2.9589178E-3,-1.702242E-2,1.4000657E-2,2.0857733E-2,7.241165E-3,-3.426742E-2,9.354391E-3,2.7408572E-2,1.027408E-2,3.7535664E-2],"categories":[],"categories_nodes":[],"categories_segments":[],"categories_sizes":[],"default_left":[0,0,0,0,0,0,0,0,0,0,0,0,0,0,0,0,0,0,0,0,0,0,0,0,0,0,0,0,0,0,0,0,0,0,0,0,0,0,0,0,0,0,0,0,0,0,0,0,0,0,0,0,0,0,0,0,0,0,0,0,0,0,0],"id":19,"left_children":[1,3,5,7,9,11,13,15,17,19,21,23,25,27,29,31,33,35,37,39,41,43,45,47,49,51,53,55,57,59,61,-1,-1,-1,-1,-1,-1,-1,-1,-1,-1,-1,-1,-1,-1,-1,-1,-1,-1,-1,-1,-1,-1,-1,-1,-1,-1,-1,-1,-1,-1,-1,-1],"loss_changes":[9.2762897E2,1.2805753E2,2.1441583E2,2.160144E1,2.8843002E1,2.5864174E1,4.503882E1,5.079529E0,1.51566925E1,1.8924637E1,1.7523556E1,2.7219334E1,1.2926961E1,1.5046936E1,1.3652283E1,6.920044E0,4.6428986E0,6.9024534E0,9.096619E0,5.848949E0,1.1867767E1,1.5748761E1,1.8871803E1,1.3204075E1,1.6866173E1,1.3173602E1,1.0824722E1,1.2856903E1,1.0832509E1,1.0668442E1,5.4700317E0,0E0,0E0,0E0,0E0,0E0,0E0,0E0,0E0,0E0,0E0,0E0,0E0,0E0,0E0,0E0,0E0,0E0,0E0,0E0,0E0,0E0,0E0,0E0,0E0,0E0,0E0,0E0,0E0,0E0,0E0,0E0,0E0],"parents":[2147483647,0,0,1,1,2,2,3,3,4,4,5,5,6,6,7,7,8,8,9,9,10,10,11,11,12,12,13,13,14,14,15,15,16,16,17,17,18,18,19,19,20,20,21,21,22,22,23,23,24,24,25,25,26,26,27,27,28,28,29,29,30,30],"right_children":[2,4,6,8,10,12,14,16,18,20,22,24,26,28,30,32,34,36,38,40,42,44,46,48,50,52,54,56,58,60,62,-1,-1,-1,-1,-1,-1,-1,-1,-1,-1,-1,-1,-1,-1,-1,-1,-1,-1,-1,-1,-1,-1,-1,-1,-1,-1,-1,-1,-1,-1,-1,-1],"split_conditions":[-2.1299856E1,-1.889575E2,1.0683574E2,-2.7862027E2,-9.6530815E1,4.3E0,2.3244218E2,3.9834133E-1,-4E0,-1.09E1,-6E0,-1E0,1.1E1,1.07E1,3.1826088E-1,3.61E2,1.1E1,-1.9203165E2,1.6108755E3,-3.909091E-2,3.9238613E1,1.4633578E3,-3E0,4E0,1.00158936E2,-2.2E1,9E0,1.705266E2,-2.2E1,5.952632E-1,3.5315314E-1,-2.6061004E-2,2.3935376E-2,-3.4363333E-2,1.9013833E-3,-6.9399914E-3,-3.856539E-2,4.872013E-3,-2.4093565E-2,2.009396E-2,-2.2903414E-2,-1.4914925E-2,9.948905E-3,-1.8262237E-2,9.300066E-3,-1.1575155E-2,-2.4612898E-3,-1.6635211E-2,2.2279902E-3,7.804748E-3,2.0397045E-2,2.105169E-2,-3.6710242E-3,-2.9589178E-3,-1.702242E-2,1.4000657E-2,2.0857733E-2,7.241165E-3,-3.426742E-2,9.354391E-3,2.7408572E-2,1.027408E-2,3.7535664E-2],"split_indices":[14,14,14,14,14,62,17,55,62,62,62,11,10,62,23,67,34,14,13,26,17,15,11,9,17,2,62,14,2,42,54,0,0,0,0,0,0,0,0,0,0,0,0,0,0,0,0,0,0,0,0,0,0,0,0,0,0,0,0,0,0,0,0],"split_type":[0,0,0,0,0,0,0,0,0,0,0,0,0,0,0,0,0,0,0,0,0,0,0,0,0,0,0,0,0,0,0,0,0,0,0,0,0,0,0,0,0,0,0,0,0,0,0,0,0,0,0,0,0,0,0,0,0,0,0,0,0,0,0],"sum_hessian":[5.4321626E3,2.4267424E3,3.00542E3,6.9613934E2,1.7306031E3,1.6327885E3,1.3726315E3,3.0795963E2,3.8817972E2,7.7934906E2,9.512541E2,1.2699026E3,3.6288583E2,1.0322527E3,3.4037875E2,1.1900333E2,1.8895631E2,9.571233E1,2.9246738E2,2.0812576E1,7.585365E2,1.27852936E2,8.234011E2,5.693343E2,7.0056836E2,7.6546196E1,2.8633963E2,1.0082643E3,2.3988398E1,1.8656473E2,1.5381404E2,1.1719651E2,1.8068134E0,1.8582782E2,3.128493E0,8.994881E1,5.76353E0,9.78758E0,2.826798E2,1.8330067E1,2.4825103E0,7.41499E2,1.7037447E1,2.1627453E1,1.0622549E2,4.433807E2,3.8002042E2,3.462204E1,5.347122E2,5.863165E2,1.1425185E2,3.493421E1,4.1611984E1,2.23969E2,6.237063E1,5.1007742E2,4.9818686E2,1.6598623E1,7.3897743E0,3.8421078E1,1.4814365E2,7.883934E0,1.4593011E2],"tree_param":{"num_deleted":"0","num_feature":"73","num_nodes":"63","size_leaf_vector":"1"}},{"base_weights":[2.4486093E-3,-4.3866912E-1,3.5860488E-1,-7.74411E-1,-2.9334518E-1,1.4460388E-1,6.5786564E-1,-9.822853E-1,-6.4013326E-1,8.41142E-2,-3.3015946E-1,3.6100022E-2,3.0712378E-1,4.9721405E-1,8.581714E-1,-5.242704E-1,-1.0564759E0,-6.6871905E-1,6.948073E-1,1.6383538E-1,-6.2955946E-1,-4.0357736E-1,-1.2997335E-1,-6.202883E-2,1.8171549E-1,4.2509982E-1,1.2052229E-1,5.336857E-1,-3.9810786E-1,-4.129336E-2,8.6943495E-1,6.599078E-3,-3.130605E-2,-3.2360177E-2,-5.306475E-3,-1.7167537E-2,-2.7817314E-2,-1.7247753E-2,3.401423E-2,1.2605666E-3,2.0324321E-2,-2.842266E-2,1.0775875E-2,1.8184677E-3,-1.3258684E-2,-5.4236166E-3,2.0439735E-2,-3.6398557E-4,-1.3909781E-2,4.141597E-3,2.3646735E-2,1.526019E-2,3.4296676E-3,1.3088329E-2,-1.9041384E-3,1.38636E-2,2.5694855E-2,-2.357478E-2,1.6706567E-2,-3.0258607E-2,2.6407419E-2],"categories":[],"categories_nodes":[],"categories_segments":[],"categories_sizes":[],"default_left":[0,0,0,0,0,0,0,0,0,0,0,0,0,0,0,0,0,0,0,0,0,0,0,0,0,0,0,0,0,0,0,0,0,0,0,0,0,0,0,0,0,0,0,0,0,0,0,0,0,0,0,0,0,0,0,0,0,0,0,0,0],"id":20,"left_children":[1,3,5,7,9,11,13,15,17,19,21,23,25,27,29,31,33,35,37,39,41,43,45,47,49,51,53,55,57,-1,59,-1,-1,-1,-1,-1,-1,-1,-1,-1,-1,-1,-1,-1,-1,-1,-1,-1,-1,-1,-1,-1,-1,-1,-1,-1,-1,-1,-1,-1,-1],"loss_changes":[8.5002094E2,1.1769916E2,1.9161557E2,1.9734222E1,2.3490005E1,3.0789742E1,3.972821E1,9.111145E0,1.748761E1,8.685098E0,2.2560608E1,1.4993749E1,1.5340042E1,2.2901718E1,1.5140778E1,1.6319778E1,4.5691223E0,1.0374054E1,6.138226E0,8.510831E0,5.1686993E0,2.007344E1,1.7204216E1,1.2562232E1,1.1076459E1,1.1056549E1,1.5841903E1,1.503804E1,1.0719887E1,0E0,1.2093475E1,0E0,0E0,0E0,0E0,0E0,0E0,0E0,0E0,0E0,0E0,0E0,0E0,0E0,0E0,0E0,0E0,0E0,0E0,0E0,0E0,0E0,0E0,0E0,0E0,0E0,0E0,0E0,0E0,0E0,0E0],"parents":[2147483647,0,0,1,1,2,2,3,3,4,4,5,5,6,6,7,7,8,8,9,9,10,10,11,11,12,12,13,13,14,14,15,15,16,16,17,17,18,18,19,19,20,20,21,21,22,22,23,23,24,24,25,25,26,26,27,27,28,28,30,30],"right_children":[2,4,6,8,10,12,14,16,18,20,22,24,26,28,30,32,34,36,38,40,42,44,46,48,50,52,54,56,58,-1,60,-1,-1,-1,-1,-1,-1,-1,-1,-1,-1,-1,-1,-1,-1,-1,-1,-1,-1,-1,-1,-1,-1,-1,-1,-1,-1,-1,-1,-1,-1],"split_conditions":[-2.1299856E1,-1.8529375E2,9.471246E1,-2.463685E2,-1.8E1,6.29862E1,2.2E-1,-6.4E0,9.8E1,7.695448E-1,-2.5483513E1,2.8571429E-2,1.7E0,1.07E1,1.4943062E3,5.612755E-1,5.5627286E-1,1E0,3.4208577E-2,6E-1,5.4821044E-1,2.17E1,7.3293574E-2,6.7E0,3.989696E-1,8.4444685E-3,-4.2E1,1E0,6.0868305E-1,-4.129336E-2,-2.23E2,6.599078E-3,-3.130605E-2,-3.2360177E-2,-5.306475E-3,-1.7167537E-2,-2.7817314E-2,-1.7247753E-2,3.401423E-2,1.2605666E-3,2.0324321E-2,-2.842266E-2,1.0775875E-2,1.8184677E-3,-1.3258684E-2,-5.4236166E-3,2.0439735E-2,-3.6398557E-4,-1.3909781E-2,4.141597E-3,2.3646735E-2,1.526019E-2,3.4296676E-3,1.3088329E-2,-1.9041384E-3,1.38636E-2,2.5694855E-2,-2.357478E-2,1.6706567E-2,-3.0258607E-2,2.6407419E-2],"split_indices":[14,14,17,17,2,14,26,62,1,46,17,32,62,62,15,49,48,69,39,18,49,60,38,62,55,41,2,69,52,0,8,0,0,0,0,0,0,0,0,0,0,0,0,0,0,0,0,0,0,0,0,0,0,0,0,0,0,0,0,0,0],"split_type":[0,0,0,0,0,0,0,0,0,0,0,0,0,0,0,0,0,0,0,0,0,0,0,0,0,0,0,0,0,0,0,0,0,0,0,0,0,0,0,0,0,0,0,0,0,0,0,0,0,0,0,0,0,0,0,0,0,0,0,0,0],"sum_hessian":[5.408463E3,2.4159517E3,2.9925112E3,7.285209E2,1.6874308E3,1.745669E3,1.2468424E3,2.8342996E2,4.4509094E2,1.4983871E2,1.537592E3,1.0475265E3,6.9814246E2,6.938416E2,5.5300073E2,4.0635216E1,2.4279474E2,4.3624838E2,8.842559E0,1.3547577E2,1.4362935E1,1.1242568E3,4.1333524E2,6.261465E2,4.2138E2,4.2693866E2,2.712038E2,6.6707184E2,2.676978E1,2.1655533E0,5.508352E2,1.6936804E1,2.3698412E1,2.3659778E2,6.196949E0,3.2003992E2,1.1620849E2,2.1922457E0,6.6503134E0,1.1037969E2,2.5096087E1,1.090048E1,3.4624546E0,8.5809395E1,1.0384474E3,3.8970413E2,2.36311E1,5.578705E2,6.8276E1,3.9422742E2,2.7152594E1,3.3595746E2,9.098121E1,9.9344826E1,1.7185896E2,5.480112E2,1.1906059E2,1.916579E1,7.6039877E0,2.6248555E0,5.482103E2],"tree_param":{"num_deleted":"0","num_feature":"73","num_nodes":"61","size_leaf_vector":"1"}},{"base_weights":[-3.6835175E-3,-4.3504918E-1,3.420873E-1,-7.384158E-1,-2.6605016E-1,1.4627095E-1,6.834893E-1,-1.1088663E0,-6.512691E-1,-1.5769996E-1,-4.8329172E-1,2.8769517E-1,1.357288E-2,5.710334E-1,9.812438E-1,-1.1553435E0,-1.6569044E-1,3.1098008E-1,-6.800459E-1,3.9830893E-1,-2.012828E-1,-4.2516097E-1,-8.285812E-1,3.9918476E-1,9.8480485E-2,-2.5339627E-1,9.890684E-2,6.764125E-1,3.158468E-1,6.55946E-1,1.0766788E0,-3.5148893E-2,8.511146E-3,-1.4876379E-2,3.393634E-2,-3.3869132E-4,3.4410655E-2,-2.1198653E-2,5.863916E-3,1.4197219E-2,-2.9267007E-2,-9.817609E-3,-2.5974133E-3,-2.387021E-2,-1.0798535E-2,-2.9768227E-2,3.472633E-3,1.4953928E-2,3.6854618E-3,-2.3540435E-2,4.548043E-3,-1.9925114E-2,-3.7809701E-3,1.2352081E-3,1.34506775E-2,2.141028E-2,8.8753095E-3,1.12087345E-2,-1.2615767E-2,2.4442574E-2,8.490201E-4,2.9172638E-2,3.8531076E-2],"categories":[],"categories_nodes":[],"categories_segments":[],"categories_sizes":[],"default_left":[0,0,0,0,0,0,0,0,0,0,0,0,0,0,0,0,0,0,0,0,0,0,0,0,0,0,0,0,0,0,0,0,0,0,0,0,0,0,0,0,0,0,0,0,0,0,0,0,0,0,0,0,0,0,0,0,0,0,0,0,0,0,0],"id":21,"left_children":[1,3,5,7,9,11,13,15,17,19,21,23,25,27,29,31,33,35,37,39,41,43,45,47,49,51,53,55,57,59,61,-1,-1,-1,-1,-1,-1,-1,-1,-1,-1,-1,-1,-1,-1,-1,-1,-1,-1,-1,-1,-1,-1,-1,-1,-1,-1,-1,-1,-1,-1,-1,-1],"loss_changes":[8.061806E2,1.230972E2,2.004685E2,2.7036072E1,3.631449E1,3.5800877E1,3.604782E1,6.9243164E0,1.9553284E1,2.5112946E1,9.964722E0,1.944291E1,2.2473068E1,2.119104E1,8.555206E0,3.9541473E0,4.3253374E0,5.662612E0,1.5925781E1,8.226331E0,1.3822666E1,1.0392563E1,1.1401005E1,1.5872482E1,1.6245108E1,1.241774E1,1.5060361E1,7.7653503E0,1.0134401E1,6.976902E0,3.711731E0,0E0,0E0,0E0,0E0,0E0,0E0,0E0,0E0,0E0,0E0,0E0,0E0,0E0,0E0,0E0,0E0,0E0,0E0,0E0,0E0,0E0,0E0,0E0,0E0,0E0,0E0,0E0,0E0,0E0,0E0,0E0,0E0],"parents":[2147483647,0,0,1,1,2,2,3,3,4,4,5,5,6,6,7,7,8,8,9,9,10,10,11,11,12,12,13,13,14,14,15,15,16,16,17,17,18,18,19,19,20,20,21,21,22,22,23,23,24,24,25,25,26,26,27,27,28,28,29,29,30,30],"right_children":[2,4,6,8,10,12,14,16,18,20,22,24,26,28,30,32,34,36,38,40,42,44,46,48,50,52,54,56,58,60,62,-1,-1,-1,-1,-1,-1,-1,-1,-1,-1,-1,-1,-1,-1,-1,-1,-1,-1,-1,-1,-1,-1,-1,-1,-1,-1,-1,-1,-1,-1,-1,-1],"split_conditions":[-2.1299856E1,-1.3611626E2,1.10510574E2,-3.4538806E2,4.2E1,2.69E1,2.7895898E2,6E-1,-1.13E1,-7.9E0,3.19E1,-8E0,1.5031847E3,3.7E0,1.0714286E-1,5.476638E-1,4.180634E-2,4.4255346E-1,9.3E1,7.52916E-2,-5.6673233E1,-2.0374532E2,7.367675E-1,8.925416E-2,3E0,-5.2172287E1,1E0,6.630273E-2,1.2E1,4.7997335E-1,1E0,-3.5148893E-2,8.511146E-3,-1.4876379E-2,3.393634E-2,-3.3869132E-4,3.4410655E-2,-2.1198653E-2,5.863916E-3,1.4197219E-2,-2.9267007E-2,-9.817609E-3,-2.5974133E-3,-2.387021E-2,-1.0798535E-2,-2.9768227E-2,3.472633E-3,1.4953928E-2,3.6854618E-3,-2.3540435E-2,4.548043E-3,-1.9925114E-2,-3.7809701E-3,1.2352081E-3,1.34506775E-2,2.141028E-2,8.8753095E-3,1.12087345E-2,-1.2615767E-2,2.4442574E-2,8.490201E-4,2.9172638E-2,3.8531076E-2],"split_indices":[14,17,17,14,2,60,14,27,62,62,60,2,15,62,32,48,39,57,1,44,17,14,45,37,9,17,72,56,62,57,69,0,0,0,0,0,0,0,0,0,0,0,0,0,0,0,0,0,0,0,0,0,0,0,0,0,0,0,0,0,0,0,0],"split_type":[0,0,0,0,0,0,0,0,0,0,0,0,0,0,0,0,0,0,0,0,0,0,0,0,0,0,0,0,0,0,0,0,0,0,0,0,0,0,0,0,0,0,0,0,0,0,0,0,0,0,0,0,0,0,0,0,0,0,0,0,0,0,0],"sum_hessian":[5.4030366E3,2.4038545E3,2.999182E3,8.5882544E2,1.5450292E3,1.9068866E3,1.0922954E3,1.6132547E2,6.9749994E2,1.0320269E3,5.130022E2,9.2252673E2,9.843598E2,7.9496924E2,2.9732614E2,1.5353473E2,7.7907405E0,1.9968864E1,6.7753107E2,7.442388E1,9.57603E2,4.409911E2,7.201114E1,5.797911E2,3.427357E2,2.3795207E2,7.464077E2,5.61463E2,2.3350623E2,6.922846E1,2.2809769E2,1.5200034E2,1.5344054E0,6.702053E0,1.0886875E0,1.5125082E1,4.8437834E0,6.5775793E2,1.9773127E1,7.119634E1,3.2275329E0,4.5550055E2,5.021025E2,6.4321846E1,3.7666925E2,6.1329414E1,1.0681727E1,4.2595422E2,1.5383684E2,1.8664114E1,3.240716E2,5.5319817E1,1.8263226E2,6.41536E2,1.0487171E2,5.1059283E2,5.0870186E1,2.1697444E2,1.6531775E1,5.50114E1,1.4217061E1,1.5564726E2,7.2450424E1],"tree_param":{"num_deleted":"0","num_feature":"73","num_nodes":"63","size_leaf_vector":"1"}},{"base_weights":[-2.5166501E-3,-3.009852E-1,4.9464965E-1,-5.945476E-1,-1.0057983E-1,3.5260302E-1,8.053577E-1,-8.672617E-1,-4.539701E-1,-2.03869E-1,1.1225658E-2,2.9979277E-1,6.068788E-1,6.9889367E-1,1.0448048E0,-7.535374E-1,-1.1371834E0,-2.09504E-1,-5.3217727E-1,-1.027983E0,-1.8681894E-1,-8.067316E-2,1.5386464E-1,6.579164E-2,3.5163602E-1,-3.9062637E-1,6.666322E-1,7.510313E-1,1.9741227E-1,5.626442E-1,1.1135025E0,-2.4414789E-2,-7.356306E-3,1.5429802E-2,-3.501319E-2,1.1464969E-3,-1.2090112E-2,6.4719594E-3,-1.695351E-2,-3.5829235E-2,4.732155E-3,-3.5305503E-3,-1.1337992E-2,-6.4928066E-3,2.1273987E-3,2.845527E-2,3.6449959E-3,-8.577909E-3,5.5259718E-3,1.4394521E-2,7.423993E-3,-4.8620444E-2,3.6947364E-3,-1.03714E-2,2.114096E-2,-1.3440376E-2,2.2943951E-2,-1.363953E-2,1.4139517E-2,2.477838E-2,-1.4205453E-2,3.4372196E-2,1.1588624E-2],"categories":[],"categories_nodes":[],"categories_segments":[],"categories_sizes":[],"default_left":[0,0,0,0,0,0,0,0,0,0,0,0,0,0,0,0,0,0,0,0,0,0,0,0,0,0,0,0,0,0,0,0,0,0,0,0,0,0,0,0,0,0,0,0,0,0,0,0,0,0,0,0,0,0,0,0,0,0,0,0,0,0,0],"id":22,"left_children":[1,3,5,7,9,11,13,15,17,19,21,23,25,27,29,31,33,35,37,39,41,43,45,47,49,51,53,55,57,59,61,-1,-1,-1,-1,-1,-1,-1,-1,-1,-1,-1,-1,-1,-1,-1,-1,-1,-1,-1,-1,-1,-1,-1,-1,-1,-1,-1,-1,-1,-1,-1,-1],"loss_changes":[8.0257367E2,1.9877008E2,8.926346E1,5.2164642E1,2.3211046E1,1.8539429E1,1.5477386E1,1.3423645E1,1.7224167E1,1.4487156E1,1.2675324E1,1.4005371E1,1.4492798E1,1.1437576E1,5.7881165E0,9.922211E0,7.318115E0,1.0628649E1,1.7029785E1,4.320719E0,1.3494877E1,1.2118755E1,9.628422E0,8.838491E0,1.2518433E1,9.126864E0,8.939583E0,6.962631E0,7.909927E0,7.5315905E0,3.5073395E0,0E0,0E0,0E0,0E0,0E0,0E0,0E0,0E0,0E0,0E0,0E0,0E0,0E0,0E0,0E0,0E0,0E0,0E0,0E0,0E0,0E0,0E0,0E0,0E0,0E0,0E0,0E0,0E0,0E0,0E0,0E0,0E0],"parents":[2147483647,0,0,1,1,2,2,3,3,4,4,5,5,6,6,7,7,8,8,9,9,10,10,11,11,12,12,13,13,14,14,15,15,16,16,17,17,18,18,19,19,20,20,21,21,22,22,23,23,24,24,25,25,26,26,27,27,28,28,29,29,30,30],"right_children":[2,4,6,8,10,12,14,16,18,20,22,24,26,28,30,32,34,36,38,40,42,44,46,48,50,52,54,56,58,60,62,-1,-1,-1,-1,-1,-1,-1,-1,-1,-1,-1,-1,-1,-1,-1,-1,-1,-1,-1,-1,-1,-1,-1,-1,-1,-1,-1,-1,-1,-1,-1,-1],"split_conditions":[4.9766823E1,-1.0695488E2,2.003344E2,-2.3357184E2,-2.1299856E1,1E0,3.3420175E2,1E0,-1.96E2,2.31E2,9.52381E-2,1.520187E3,1.4689119E3,4.18E2,4.2329645E-1,-2.3809524E-2,1.491203E3,3.7270585E-1,2.5E-1,1.5873017E-2,5.3188497E-1,9.488865E-4,2E-1,-9E0,2.71E1,-2.5E1,1.507157E3,-1.74E2,2.06E2,5.9106153E-1,1.6870829E3,-2.4414789E-2,-7.356306E-3,1.5429802E-2,-3.501319E-2,1.1464969E-3,-1.2090112E-2,6.4719594E-3,-1.695351E-2,-3.5829235E-2,4.732155E-3,-3.5305503E-3,-1.1337992E-2,-6.4928066E-3,2.1273987E-3,2.845527E-2,3.6449959E-3,-8.577909E-3,5.5259718E-3,1.4394521E-2,7.423993E-3,-4.8620444E-2,3.6947364E-3,-1.03714E-2,2.114096E-2,-1.3440376E-2,2.2943951E-2,-1.363953E-2,1.4139517E-2,2.477838E-2,-1.4205453E-2,3.4372196E-2,1.1588624E-2],"split_indices":[14,14,14,14,14,69,14,69,8,3,32,15,15,8,57,32,16,55,27,32,49,41,19,11,60,5,12,8,9,52,16,0,0,0,0,0,0,0,0,0,0,0,0,0,0,0,0,0,0,0,0,0,0,0,0,0,0,0,0,0,0,0,0],"split_type":[0,0,0,0,0,0,0,0,0,0,0,0,0,0,0,0,0,0,0,0,0,0,0,0,0,0,0,0,0,0,0,0,0,0,0,0,0,0,0,0,0,0,0,0,0,0,0,0,0,0,0,0,0,0,0,0,0,0,0,0,0,0,0],"sum_hessian":[5.406594E3,3.3786511E3,2.0279429E3,1.3699387E3,2.0087125E3,1.393164E3,6.3477893E2,4.6421445E2,9.0572424E2,1.0436941E3,9.650185E2,1.1553827E3,2.3778122E2,4.421202E2,1.9265872E2,3.2927496E2,1.3493948E2,2.2041437E2,6.853099E2,1.9953445E1,1.0237406E3,5.8716003E2,3.7785846E2,2.099619E2,9.4542084E2,1.3125801E1,2.2465543E2,4.0003235E2,4.208788E1,2.5172655E1,1.6748607E2,2.9382553E2,3.5449432E1,2.113305E0,1.3282619E2,9.701595E1,1.2339841E2,2.8675358E1,6.566345E2,1.749248E1,2.460966E0,7.5297424E2,2.7076633E2,3.0953088E2,2.7762915E2,1.3679605E1,3.6417886E2,5.252496E1,1.5743694E2,4.222425E2,5.2317834E2,3.2324839E0,9.893317E0,7.848535E0,2.1680688E2,4.182893E0,3.9584946E2,1.22545595E1,2.9833319E1,2.0233845E1,4.93881E0,1.5982549E2,7.6605716E0],"tree_param":{"num_deleted":"0","num_feature":"73","num_nodes":"63","size_leaf_vector":"1"}},{"base_weights":[-6.6729723E-3,-2.8961784E-1,4.7133064E-1,-6.605376E-1,-1.2671956E-1,2.7442023E-1,6.90155E-1,-9.7429746E-1,-5.5423534E-1,-2.3703583E-1,4.347466E-2,3.7806803E-1,8.4321715E-2,5.854901E-1,9.287457E-1,3.354935E-1,-9.907907E-1,-4.4701576E-2,-6.1475927E-1,-1.6708316E-1,-4.223802E-1,-3.825583E-2,2.933909E-1,3.0588233E-1,6.791749E-1,3.916864E-1,-6.549085E-2,7.0636016E-1,3.4291142E-1,9.934901E-1,5.2844435E-1,-2.4337297E-2,3.2242708E-2,-3.006876E-2,1.8335024E-2,1.5994088E-3,-3.9996166E-2,-1.8893674E-2,1.6346822E-2,-1.5223126E-2,-3.953092E-3,-1.6641598E-2,-5.7824296E-3,-2.4982298E-2,-4.054927E-4,6.6481987E-3,2.4357852E-2,1.9622426E-2,7.5503504E-3,1.5060199E-2,3.8707107E-2,1.4390687E-2,-2.3729762E-2,-1.5460864E-2,9.2802296E-4,1.8931853E-2,2.785308E-2,3.6992473E-3,1.5821587E-2,8.779951E-3,3.0674718E-2,-1.2927967E-2,2.0984244E-2],"categories":[],"categories_nodes":[],"categories_segments":[],"categories_sizes":[],"default_left":[0,0,0,0,0,0,0,0,0,0,0,0,0,0,0,0,0,0,0,0,0,0,0,0,0,0,0,0,0,0,0,0,0,0,0,0,0,0,0,0,0,0,0,0,0,0,0,0,0,0,0,0,0,0,0,0,0,0,0,0,0,0,0],"id":23,"left_children":[1,3,5,7,9,11,13,15,17,19,21,23,25,27,29,31,33,35,37,39,41,43,45,47,49,51,53,55,57,59,61,-1,-1,-1,-1,-1,-1,-1,-1,-1,-1,-1,-1,-1,-1,-1,-1,-1,-1,-1,-1,-1,-1,-1,-1,-1,-1,-1,-1,-1,-1,-1,-1],"loss_changes":[7.2721783E2,2.0399701E2,8.595825E1,3.3829193E1,4.40968E1,2.073552E1,2.308731E1,5.9372253E0,2.3780304E1,1.8402863E1,1.8890587E1,1.4611908E1,1.721001E1,1.9122833E1,6.9090576E0,4.2403784E0,5.338043E0,1.0558861E1,1.2368835E1,1.238582E1,1.173761E1,1.3696147E1,8.303013E0,1.0249695E1,1.3537376E1,1.3122335E1,1.0936849E1,6.769623E0,8.911827E0,4.695816E0,7.2044525E0,0E0,0E0,0E0,0E0,0E0,0E0,0E0,0E0,0E0,0E0,0E0,0E0,0E0,0E0,0E0,0E0,0E0,0E0,0E0,0E0,0E0,0E0,0E0,0E0,0E0,0E0,0E0,0E0,0E0,0E0,0E0,0E0],"parents":[2147483647,0,0,1,1,2,2,3,3,4,4,5,5,6,6,7,7,8,8,9,9,10,10,11,11,12,12,13,13,14,14,15,15,16,16,17,17,18,18,19,19,20,20,21,21,22,22,23,23,24,24,25,25,26,26,27,27,28,28,29,29,30,30],"right_children":[2,4,6,8,10,12,14,16,18,20,22,24,26,28,30,32,34,36,38,40,42,44,46,48,50,52,54,56,58,60,62,-1,-1,-1,-1,-1,-1,-1,-1,-1,-1,-1,-1,-1,-1,-1,-1,-1,-1,-1,-1,-1,-1,-1,-1,-1,-1,-1,-1,-1,-1,-1,-1],"split_conditions":[4.9766823E1,-1.4340694E2,1.19096535E2,-2.5241753E2,-8.746497E0,-1.8E1,2.7895898E2,1.94E1,-7E0,3.5E1,2.97E1,1E0,-1.7E0,3E0,7.479998E-1,-2.9166666E-1,1.125E3,3.37E2,3.788935E1,-7.742045E-2,3E0,3.06E2,4.5358264E-1,-9.2E1,4.3237123E-1,7.9571927E-1,3.0289874E0,1.89E2,1.4E-1,2.0111449E-1,2.0202223E2,-2.4337297E-2,3.2242708E-2,-3.006876E-2,1.8335024E-2,1.5994088E-3,-3.9996166E-2,-1.8893674E-2,1.6346822E-2,-1.5223126E-2,-3.953092E-3,-1.6641598E-2,-5.7824296E-3,-2.4982298E-2,-4.054927E-4,6.6481987E-3,2.4357852E-2,1.9622426E-2,7.5503504E-3,1.5060199E-2,3.8707107E-2,1.4390687E-2,-2.3729762E-2,-1.5460864E-2,9.2802296E-4,1.8931853E-2,2.785308E-2,3.6992473E-3,1.5821587E-2,8.779951E-3,3.0674718E-2,-1.2927967E-2,2.0984244E-2],"split_indices":[14,14,17,17,17,2,14,60,62,2,61,69,62,62,46,32,5,66,17,47,65,3,58,2,58,46,17,67,23,29,17,0,0,0,0,0,0,0,0,0,0,0,0,0,0,0,0,0,0,0,